tree
version=v3
num_class=1
num_tree_per_iteration=1
label_index=0
max_feature_idx=24
objective=binary sigmoid:1
feature_names=Column_0 Column_1 Column_2 Column_3 Column_4 Column_5 Column_6 Column_7 Column_8 Column_9 Column_10 Column_11 Column_12 Column_13 Column_14 Column_15 Column_16 Column_17 Column_18 Column_19 Column_20 Column_21 Column_22 Column_23 Column_24
feature_infos=[1:2] none none none none none none [0:1] [0:1] [2:95] [0.053828661616161615:0.94628787878787879] [0.076829166666666671:0.96621212121212119] [0.0079090909090909767:0.023000505050505056] [0.012696078431372576:0.59557679738562086] [0.55555555555555558:2.2222222222222223] [6.2640000000000002:18.2164] [0:0.875] [0:1] [0:1] none [0:13] none none [0:0.5] [0:1]
tree_sizes=649 754 759 867 757 652 1086 646 759 757 759 761 756 655 655 658 767 655 657 867 655 657 764 765 658 867 764 657 767 657 761 767 767 769 657 659 772 658 770 880 773 768 880 662 777 879 664 773 662 769 665 883 886 665 775 883 880 777 774 665 777 780 666 666 663 667 668 665 776 667 777 780 778 777 556 666 782 1118 888 892 668 779 999 670 891 670 670 670 1005 670 340 786 786 896 675 895 789 676 783 675 789 902 788 676 674 793 791 792 900 788 679 792 791 677 678 899 562 678 678 560 680 674 678 791 563 677 678 791 566 790 677 565 565 793 568 681 568 456 569 569 456 568 455 568 568 569 456 456 568 455 570 568 345 345 462 460 459 571 460 462 460 346 344 346 345 346 345 346 344 345 343 345 343 342 344 344 345 342 346 343 346 342 345

Tree=0
num_leaves=5
num_cat=0
split_feature=10 10 8 9
split_gain=32.2167 88.4594 2.22045e-16 1.11022e-16
threshold=0.15271843434343438 0.12214311868686871 1.0000000180025095e-35 14.500000000000002
decision_type=2 2 2 2
left_child=1 2 3 -1
right_child=-2 -3 -4 -5
leaf_value=-4.3133841019624439 -4.3133841019624439 -3.4007080661320637 -4.3133841019624439 -4.3133841019624439
leaf_weight=0.28761574532836653 5.6564429914578795 0.38348766043782234 0.28761574532836676 0.28761574532836676
leaf_count=21 413 28 21 21
internal_value=-4.26268 -4.03256 -4.31338 -4.31338
internal_weight=0 1.24633 0.862847 0.575231
internal_count=504 91 63 42
shrinkage=1


Tree=1
num_leaves=6
num_cat=0
split_feature=10 0 10 13 9
split_gain=21.8645 43.7612 85.4169 3.89612e-05 8.88178e-16
threshold=0.15271843434343438 1.5000000000000002 0.10890625000000002 0.18930882352941181 83.500000000000014
decision_type=2 2 2 2 2
left_child=1 2 -1 -3 -2
right_child=4 3 -4 -5 -6
leaf_value=-0.050669408370717463 -0.050669408370717553 -0.051043265131782638 1.0780970361855544 -0.051667485615417057 -0.050669408370717497
leaf_weight=0.36502908542752233 4.6541208392009139 0.58365150354802608 0.30987968947738409 0.43724483624100685 0.73005817085504521
leaf_count=28 357 35 14 14 56
internal_value=0 0.155208 0.467596 -0.0513106 -0.0506694
internal_weight=0 1.69581 0.674909 1.0209 5.38418
internal_count=504 91 42 49 413
shrinkage=0.05


Tree=2
num_leaves=6
num_cat=0
split_feature=10 10 10 0 0
split_gain=15.8072 62.4926 0.000174091 4.0371e-12 8.88178e-16
threshold=0.15271843434343438 0.13729419191919193 0.10890625000000002 1.5000000000000002 1.5000000000000002
decision_type=2 2 2 2 2
left_child=1 2 3 -1 -2
right_child=4 -3 -4 -5 -6
leaf_value=-0.050636334481621519 -0.050636334481621685 0.56011392491835321 -0.051694999258782265 -0.050636093428397144 -0.050636334481621637
leaf_weight=0.34744748100638412 4.3430935125797987 0.5690920054912566 0.87997329421341419 0.34732087701559067 0.78175683226436365
leaf_count=28 350 7 28 28 63
internal_value=0 0.111056 -0.0512279 -0.0506362 -0.0506363
internal_weight=0 2.14383 1.57474 0.694768 5.12485
internal_count=504 91 84 56 413
shrinkage=0.05


Tree=3
num_leaves=7
num_cat=0
split_feature=10 10 10 0 9 9
split_gain=13.2635 34.0584 0.000149317 3.34899e-12 8.88178e-16 4.44089e-16
threshold=0.15271843434343438 0.13729419191919193 0.10890625000000002 1.5000000000000002 20.000000000000004 84.500000000000014
decision_type=2 2 2 2 2 2
left_child=1 2 3 -1 -2 -6
right_child=4 -3 -4 -5 5 -7
leaf_value=-0.050604912762012233 -0.050604912762012393 0.34134850265628791 -0.051609655533596005 -0.050604687720130652 -0.0506049127620124 -0.050604912762012316
leaf_weight=0.33070229738950752 1.4881603382527826 0.87515468895435322 0.83840573579072952 0.33058171719312668 2.9763206765055661 0.41337787173688401
leaf_count=28 126 7 28 28 252 35
internal_value=0 0.0934793 -0.0511666 -0.0506048 -0.0506049 -0.0506049
internal_weight=0 2.37484 1.49969 0.661284 4.87786 3.3897
internal_count=504 91 84 56 413 287
shrinkage=0.05


Tree=4
num_leaves=6
num_cat=0
split_feature=10 10 10 0 9
split_gain=11.6293 23.5686 0.000128089 2.84961e-12 8.88178e-16
threshold=0.15271843434343438 0.13729419191919193 0.10890625000000002 1.5000000000000002 84.500000000000014
decision_type=2 2 2 2 2
left_child=1 2 3 -1 -2
right_child=4 -3 -4 -5 -6
leaf_value=-0.05057506551263883 -0.050575065512638989 0.25709373781885442 -0.051528737268140536 -0.050574852728201718 -0.050575065512638878
leaf_weight=0.31475473195314407 4.249188881367445 1.096609503030777 0.79873697645962238 0.31463988870382309 0.39344341494142998
leaf_count=28 378 7 28 28 35
internal_value=0 0.0827578 -0.0511084 -0.050575 -0.0505751
internal_weight=0 2.52474 1.42813 0.629395 4.64263
internal_count=504 91 84 56 413
shrinkage=0.05


Tree=5
num_leaves=5
num_cat=0
split_feature=10 10 10 0
split_gain=10.3994 17.9159 0.000109899 2.52498e-12
threshold=0.15271843434343438 0.13729419191919193 0.10890625000000002 1.5000000000000002
decision_type=2 2 2 2
left_child=1 2 3 -1
right_child=-2 -3 -4 -5
leaf_value=-0.05054670611837813 -0.050546706118378283 0.21014472339244197 -0.051452002809679001 -0.050546500811678677
leaf_weight=0.29956770315766335 4.4186236215755343 1.2692398726940155 0.76088663376867771 0.29945836216211319
leaf_count=28 413 7 28 28
internal_value=0 0.0750417 -0.0510532 -0.0505466
internal_weight=0 2.62915 1.35991 0.599026
internal_count=504 91 84 56
shrinkage=0.05


Tree=6
num_leaves=9
num_cat=0
split_feature=10 10 10 0 9 9 10 9
split_gain=9.41401 14.3587 9.43073e-05 2.05325e-12 8.88178e-16 4.44089e-16 2.22045e-16 1.11022e-16
threshold=0.15271843434343438 0.13729419191919193 0.10890625000000002 1.5000000000000002 75.000000000000014 24.500000000000004 0.78444065656565665 89.500000000000014
decision_type=2 2 2 2 2 2 2 2
left_child=1 2 3 -1 5 -2 -7 -6
right_child=4 -3 -4 -5 7 6 -8 -9
leaf_value=-0.050519755625403701 -0.050519755625403832 0.17979200426103709 -0.051379223702755696 -0.050519565850118513 -0.050519755625403812 -0.050519755625403839 -0.050519755625403777 -0.050519755625403645
leaf_weight=0.28510579839348793 1.4255289919674399 1.4053200483322144 0.72477711550891399 0.28500164672732353 0.71276449598371971 1.4255289919674394 0.42765869759023178 0.21382934879511595
leaf_count=28 140 7 28 28 70 140 42 21
internal_value=0 0.0691152 -0.0510008 -0.0505197 -0.0505198 -0.0505198 -0.0505198 -0.0505198
internal_weight=0 2.7002 1.29488 0.570107 4.20531 3.27872 1.85319 0.926594
internal_count=504 91 84 56 413 322 182 91
shrinkage=0.05


Tree=7
num_leaves=5
num_cat=0
split_feature=10 10 10 0
split_gain=8.59493 11.9096 8.09398e-05 1.8513e-12
threshold=0.15271843434343438 0.13729419191919193 0.10890625000000002 1.5000000000000002
decision_type=2 2 2 2
left_child=1 2 3 -1
right_child=-2 -3 -4 -5
leaf_value=-0.050494150196595033 -0.050494150196595214 0.15843393342925585 -0.051310185372134109 -0.0504939654855808
leaf_weight=0.27133506536483765 4.0021922141313553 1.5119479894638062 0.690333541482687 0.27123592048883438
leaf_count=28 413 7 28 28
internal_value=0 0.0643846 -0.050951 -0.0504941
internal_weight=0 2.74485 1.2329 0.542571
internal_count=504 91 84 56
shrinkage=0.05


Tree=8
num_leaves=6
num_cat=0
split_feature=10 10 10 0 9
split_gain=7.89695 10.1196 6.9477e-05 1.61249e-12 4.44089e-16
threshold=0.15271843434343438 0.13729419191919193 0.10890625000000002 1.5000000000000002 38.000000000000007
decision_type=2 2 2 2 2
left_child=1 2 3 -1 -2
right_child=4 -3 -4 -5 -6
leaf_value=-0.050469819051549625 -0.050469819051549791 0.14254613186942897 -0.051244689622666019 -0.05046964233597049 -0.050469819051549791
leaf_weight=0.25822319462895393 2.5176761476323013 1.5940996110439301 0.65748367831110954 0.25812879577279091 1.2911159731447694
leaf_count=28 273 7 28 28 140
internal_value=0 0.0605072 -0.0509038 -0.0504697 -0.0504698
internal_weight=0 2.76794 1.17384 0.516352 3.80879
internal_count=504 91 84 56 413
shrinkage=0.05


Tree=9
num_leaves=6
num_cat=0
split_feature=10 10 10 0 10
split_gain=7.29125 8.75375 5.96444e-05 1.34792e-12 8.88178e-16
threshold=0.15271843434343438 0.13729419191919193 0.10890625000000002 1.5000000000000002 0.54298863636363648
decision_type=2 2 2 2 2
left_child=1 2 3 -1 -2
right_child=4 -3 -4 -5 -6
leaf_value=-0.0504466981267222 -0.05044669812672236 0.13025114991696496 -0.051182539512815289 -0.050446532499559521 -0.050446698126722395
leaf_weight=0.24573925882577896 1.2901311088353398 1.6556029170751572 0.626158082857728 0.24564937129616737 2.3345229588449001
leaf_count=28 147 7 28 28 266
internal_value=0 0.0572659 -0.050859 -0.0504466 -0.0504467
internal_weight=0 2.77315 1.11755 0.491389 3.62465
internal_count=504 91 84 56 413
shrinkage=0.05


Tree=10
num_leaves=6
num_cat=0
split_feature=10 10 10 0 9
split_gain=6.75826 7.67703 5.12114e-05 1.15119e-12 4.44089e-16
threshold=0.15271843434343438 0.13729419191919193 0.10890625000000002 1.5000000000000002 8.5000000000000018
decision_type=2 2 2 2 2
left_child=1 2 3 -1 -2
right_child=4 -3 -4 -5 -6
leaf_value=-0.050424719362733406 -0.050424719362733399 0.12045047162718583 -0.05112356527392739 -0.050424562466959824 -0.050424719362733607
leaf_weight=0.23385371267795563 0.29231714084744487 1.6995538771152496 0.5962897501885891 0.23376815393567085 3.157025121152401
leaf_count=28 35 7 28 28 378
internal_value=0 0.0545141 -0.0508164 -0.0504246 -0.0504247
internal_weight=0 2.76347 1.06391 0.467622 3.44934
internal_count=504 91 84 56 413
shrinkage=0.05


Tree=11
num_leaves=6
num_cat=0
split_feature=10 10 10 0 9
split_gain=6.28409 6.8063 4.39761e-05 1.01513e-12 4.44089e-16
threshold=0.15271843434343438 0.13729419191919193 0.10890625000000002 1.5000000000000002 47.000000000000007
decision_type=2 2 2 2 2
left_child=1 2 3 -1 -2
right_child=4 -3 -4 -5 -6
leaf_value=-0.050403831314811257 -0.050403831314811458 0.11245581692302208 -0.051067592777441745 -0.050403680281278319 -0.050403831314811437
leaf_weight=0.22253839299082756 2.3366531264036898 1.7285306751728058 0.56781436130404472 0.2224569283425808 0.94578817021101702
leaf_count=28 294 7 28 28 119
internal_value=0 0.0521486 -0.0507759 -0.0504038 -0.0504038
internal_weight=0 2.74134 1.01281 0.444995 3.28244
internal_count=504 91 84 56 413
shrinkage=0.05


Tree=12
num_leaves=6
num_cat=0
split_feature=10 10 10 0 0
split_gain=5.85849 6.08756 3.77664e-05 8.617e-13 4.44089e-16
threshold=0.15271843434343438 0.13729419191919193 0.10890625000000002 1.5000000000000002 1.5000000000000002
decision_type=2 2 2 2 2
left_child=1 2 3 -1 -2
right_child=4 -3 -4 -5 -6
leaf_value=-0.05038398310511253 -0.050383983105112773 0.10581282431530399 -0.051014462147937457 -0.050383840451864587 -0.05038398310511271
leaf_weight=0.21176636219024669 2.6470795273780827 1.7447187751531601 0.54067004844546318 0.2116888090968132 0.4764743149280547
leaf_count=28 350 7 28 28 63
internal_value=0 0.0500938 -0.0507375 -0.0503839 -0.050384
internal_weight=0 2.70884 0.964125 0.423455 3.12355
internal_count=504 91 84 56 413
shrinkage=0.05


Tree=13
num_leaves=5
num_cat=0
split_feature=10 10 10 10
split_gain=5.47372 5.48417 3.24376e-05 4.39426e-13
threshold=0.15271843434343438 0.13729419191919193 0.10890625000000002 0.10148200757575758
decision_type=2 2 2 2
left_child=1 2 3 -1
right_child=-2 -3 -4 -5
leaf_value=-0.050365091318837013 -0.050365118272387099 0.10020882578160054 -0.050964030709154687 -0.050364983465125038
leaf_weight=0.25187147827819001 2.9723012247122824 1.7499923855066299 0.51479736901819706 0.15107859252020717
leaf_count=35 413 7 28 21
internal_value=0 0.0482933 -0.050701 -0.0503651
internal_weight=0 2.66774 0.917747 0.40295
internal_count=504 91 84 56
shrinkage=0.05


Tree=14
num_leaves=5
num_cat=0
split_feature=10 10 10 10
split_gain=5.12374 4.97047 2.78638e-05 3.80751e-13
threshold=0.15271843434343438 0.13729419191919193 0.10890625000000002 0.10148200757575758
decision_type=2 2 2 2
left_child=1 2 3 -1
right_child=-2 -3 -4 -5
leaf_value=-0.050347155452534667 -0.05034718373766988 0.095421334224846152 -0.050916147675040581 -0.050347052521074791
leaf_weight=0.23967075208202016 2.828322078101337 1.7459707856178284 0.49013929255306721 0.14376028859987855
leaf_count=35 413 7 28 21
internal_value=0 0.0467037 -0.0506664 -0.0503471
internal_weight=0 2.61954 0.87357 0.383431
internal_count=504 91 84 56
shrinkage=0.05


Tree=15
num_leaves=5
num_cat=0
split_feature=10 10 10 10
split_gain=4.80379 4.52788 2.39366e-05 3.25684e-13
threshold=0.15271843434343438 0.13729419191919193 0.10890625000000002 0.10148200757575758
decision_type=2 2 2 2
left_child=1 2 3 -1
right_child=-2 -3 -4 -5
leaf_value=-0.050330113416965278 -0.050330137811223245 0.091287539108187696 -0.050870682975055682 -0.050330015827748889
leaf_weight=0.22805712744593631 2.6912713837809861 1.7340596318244934 0.46664109639823437 0.13679414195939898
leaf_count=35 413 7 28 21
internal_value=0 0.0452911 -0.0506335 -0.0503301
internal_weight=0 2.56555 0.831492 0.364851
internal_count=504 91 84 56
shrinkage=0.05


Tree=16
num_leaves=6
num_cat=0
split_feature=10 10 10 10 10
split_gain=4.51003 4.14268 2.05653e-05 2.88713e-13 4.44089e-16
threshold=0.15271843434343438 0.13729419191919193 0.10890625000000002 0.10148200757575758 0.54298863636363648
decision_type=2 2 2 2 2
left_child=1 2 3 -1 -2
right_child=4 -3 -4 -5 -6
leaf_value=-0.050313910311498115 -0.050313933850543328 0.087685413931757286 -0.050827513892799187 -0.050313816120776789 -0.05031393385054337
leaf_weight=0.21700275084003817 0.91147840395569835 1.7154838144779205 0.44425023533403873 0.13016345025971532 1.6493418738245962
leaf_count=35 147 7 28 21 266
internal_value=0 0.0440287 -0.0506022 -0.0503139 -0.0503139
internal_weight=0 2.5069 0.791416 0.347166 2.56082
internal_count=504 91 84 56 413
shrinkage=0.05


Tree=17
num_leaves=5
num_cat=0
split_feature=10 10 10 10
split_gain=4.23932 3.80448 1.76705e-05 2.29372e-13
threshold=0.15271843434343438 0.13729419191919193 0.10890625000000002 0.10148200757575758
decision_type=2 2 2 2
left_child=1 2 3 -1
right_child=-2 -3 -4 -5
leaf_value=-0.05029850447737351 -0.050298525981105305 0.084521685920125156 -0.050786518197982237 -0.050298418407312001
leaf_weight=0.20648102369159471 2.436654896941036 1.6913120746612549 0.42291640676558018 0.12385225435718894
leaf_count=35 413 7 28 21
internal_value=0 0.0428947 -0.0505725 -0.0502985
internal_weight=0 2.44456 0.75325 0.330333
internal_count=504 91 84 56
shrinkage=0.05


Tree=18
num_leaves=5
num_cat=0
split_feature=10 10 10 10
split_gain=3.98905 3.50528 1.51843e-05 1.97009e-13
threshold=0.15271843434343438 0.13729419191919193 0.10890625000000002 0.10148200757575758
decision_type=2 2 2 2
left_child=1 2 3 -1
right_child=-2 -3 -4 -5
leaf_value=-0.050283863269394741 -0.050283884735340213 0.081723762276284362 -0.050747583475086115 -0.050283781499571772
leaf_weight=0.19646657630801212 2.3184758019633591 1.6624784916639328 0.4025913942605257 0.11784533830359578
leaf_count=35 413 7 28 21
internal_value=0 0.0418717 -0.0505443 -0.0502838
internal_weight=0 2.37938 0.716903 0.314312
internal_count=504 91 84 56
shrinkage=0.05


Tree=19
num_leaves=7
num_cat=0
split_feature=10 10 10 10 9 9
split_gain=3.75705 3.23881 1.30489e-05 2.05169e-13 4.44089e-16 1.11022e-16
threshold=0.15271843434343438 0.13729419191919193 0.10890625000000002 0.10148200757575758 38.000000000000007 77.000000000000014
decision_type=2 2 2 2 2 2
left_child=1 2 3 -1 -2 -6
right_child=4 -3 -4 -5 5 -7
leaf_value=-0.050269944585590622 -0.050269960499772982 0.079234288081210025 -0.050710600597810712 -0.050269859031948409 -0.050269960499772892 -0.050269960499772906
leaf_weight=0.18693523202091467 1.4582019257359209 1.6297996938228607 0.3832290219143033 0.11212820978835225 0.33650813670828927 0.4112877226434648
leaf_count=35 273 7 28 21 63 77
internal_value=0 0.0409449 -0.0505174 -0.0502699 -0.05027 -0.05027
internal_weight=0 2.31209 0.682292 0.299063 2.206 0.747796
internal_count=504 91 84 56 413 140
shrinkage=0.05


Tree=20
num_leaves=5
num_cat=0
split_feature=10 10 10 10
split_gain=3.54144 3.00012 1.1215e-05 1.49547e-13
threshold=0.15271843434343438 0.13729419191919193 0.10890625000000002 0.10148200757575758
decision_type=2 2 2 2
left_child=1 2 3 -1
right_child=-2 -3 -4 -5
leaf_value=-0.050256703368107981 -0.050256726671261381 0.077007317779107298 -0.050675475043861454 -0.050256628476704479
leaf_weight=0.17786395177245151 2.098948716185987 1.5939897745847702 0.3647850239649415 0.10668702190741897
leaf_count=35 413 7 28 21
internal_value=0 0.0401024 -0.0504919 -0.0502567
internal_weight=0 2.24333 0.649336 0.284551
internal_count=504 91 84 56
shrinkage=0.05


Tree=21
num_leaves=5
num_cat=0
split_feature=10 10 10 10
split_gain=3.34066 2.78518 9.63919e-06 1.27343e-13
threshold=0.15271843434343438 0.13729419191919193 0.10890625000000002 0.10148200757575758
decision_type=2 2 2 2
left_child=1 2 3 -1
right_child=-2 -3 -4 -5
leaf_value=-0.050244122503436496 -0.050244145021516806 0.07500562215950192 -0.050642104921044033 -0.050244051665140226
leaf_weight=0.16923072002828132 1.9970691581256685 1.5556720793247223 0.34721712302416563 0.10150860249996185
leaf_count=35 413 7 28 21
internal_value=0 0.0393339 -0.0504677 -0.0502441
internal_weight=0 2.17363 0.617956 0.270739
internal_count=504 91 84 56
shrinkage=0.05


Tree=22
num_leaves=6
num_cat=0
split_feature=10 10 10 10 9
split_gain=3.15334 2.59075 8.28543e-06 1.16518e-13 2.22045e-16
threshold=0.15271843434343438 0.13729419191919193 0.10890625000000002 0.10148200757575758 26.500000000000004
decision_type=2 2 2 2 2
left_child=1 2 3 -1 -2
right_child=4 -3 -4 -5 -6
leaf_value=-0.050232162711745479 -0.050232180069588711 0.07319867131295052 -0.050610406188975776 -0.05023209325486172 -0.050232180069588676
leaf_weight=0.16101460997015249 1.1915956498123703 1.5153912007808685 0.33048479538410902 0.096580375917255878 0.70851633232086886
leaf_count=35 259 7 28 21 154
internal_value=0 0.038631 -0.0504447 -0.0502321 -0.0502322
internal_weight=0 2.10347 0.58808 0.257595 1.90011
internal_count=504 91 84 56 413
shrinkage=0.05


Tree=23
num_leaves=6
num_cat=0
split_feature=10 10 10 10 9
split_gain=2.97827 2.41415 7.12229e-06 1.00031e-13 2.22045e-16
threshold=0.15271843434343438 0.13729419191919193 0.10890625000000002 0.10148200757575758 30.500000000000004
decision_type=2 2 2 2 2
left_child=1 2 3 -1 -2
right_child=4 -3 -4 -5 -6
leaf_value=-0.05022078976035399 -0.050220807581402453 0.071561220786661273 -0.050580289825011018 -0.05022072377092051 -0.050220807581402419
leaf_weight=0.15319564333185609 1.1643724311143158 1.4736213237047195 0.31454932317137718 0.091890372801572084 0.6434689750894903
leaf_count=35 266 7 28 21 147
internal_value=0 0.0379862 -0.0504228 -0.0502208 -0.0502208
internal_weight=0 2.03326 0.559635 0.245086 1.80784
internal_count=504 91 84 56 413
shrinkage=0.05


Tree=24
num_leaves=5
num_cat=0
split_feature=10 10 10 10
split_gain=2.81441 2.25316 6.12295e-06 7.33302e-14
threshold=0.15271843434343438 0.13729419191919193 0.10890625000000002 0.10148200757575758
decision_type=2 2 2 2
left_child=1 2 3 -1
right_child=-2 -3 -4 -5
leaf_value=-0.050209970208532732 -0.050209991695818496 0.070072182942773689 -0.050551674869372377 -0.050209912284694493
leaf_weight=0.14575480995699774 1.7200329951010642 1.4307751953601837 0.29937366396188736 0.087427171412855387
leaf_count=35 413 7 28 21
internal_value=0 0.0373934 -0.050402 -0.0502099
internal_weight=0 1.96333 0.532556 0.233182
internal_count=504 91 84 56
shrinkage=0.05


Tree=25
num_leaves=7
num_cat=0
split_feature=10 10 10 10 9 9
split_gain=2.66085 2.1059 5.26407e-06 5.8259e-14 2.22045e-16 1.11022e-16
threshold=0.15271843434343438 0.13729419191919193 0.10890625000000002 0.10148200757575758 22.000000000000004 18.000000000000004
decision_type=2 2 2 2 2 2
left_child=1 2 3 -1 5 -2
right_child=4 -3 -4 -5 -6 -7
leaf_value=-0.050199686847584052 -0.050199707445955137 0.068713833247538408 -0.05052448668487413 -0.05019963390849063 -0.0501997074459552 -0.05019970744595479
leaf_weight=0.13867394719272863 0.41605238104239095 1.3872106969356537 0.28492242470383644 0.083179897628724575 1.1094730161130426 0.11094730161130428
leaf_count=35 105 7 28 21 280 28
internal_value=0 0.0368471 -0.0503823 -0.0501997 -0.0501997 -0.0501997
internal_weight=0 1.89399 0.506776 0.221854 1.63647 0.527
internal_count=504 91 84 56 413 133
shrinkage=0.05


Tree=26
num_leaves=6
num_cat=0
split_feature=10 10 10 10 9
split_gain=2.51677 1.9708 4.52588e-06 6.06182e-14 2.22045e-16
threshold=0.15271843434343438 0.13729419191919193 0.10890625000000002 0.10148200757575758 38.000000000000007
decision_type=2 2 2 2 2
left_child=1 2 3 -1 -2
right_child=4 -3 -4 -5 -6
leaf_value=-0.050189913304907879 -0.050189930229938284 0.06747112329592593 -0.050498651727317913 -0.05018985797181616 -0.050189930229938243
leaf_weight=0.13193578389473271 1.0291747413575647 1.3432378321886063 0.2711617574095726 0.079138185828924179 0.52778191864490498
leaf_count=35 273 7 28 21 140
internal_value=0 0.0363427 -0.0503635 -0.0501899 -0.0501899
internal_weight=0 1.82547 0.482236 0.211074 1.55696
internal_count=504 91 84 56 413
shrinkage=0.05


Tree=27
num_leaves=5
num_cat=0
split_feature=10 10 10 10
split_gain=2.38143 1.84653 3.89144e-06 5.89251e-14
threshold=0.15271843434343438 0.13729419191919193 0.10890625000000002 0.10148200757575758
decision_type=2 2 2 2
left_child=1 2 3 -1
right_child=-2 -3 -4 -5
leaf_value=-0.050180617282331169 -0.050180631274349054 0.066331212978259113 -0.050474100017486603 -0.050180561328866294
leaf_weight=0.12552386382594716 1.4812904451973734 1.2991238385438919 0.25805933959782124 0.075292164226993918
leaf_count=35 413 7 28 21
internal_value=0 0.0358761 -0.0503457 -0.0501806
internal_weight=0 1.758 0.458875 0.200816
internal_count=504 91 84 56
shrinkage=0.05


Tree=28
num_leaves=6
num_cat=0
split_feature=10 10 10 10 9
split_gain=2.25419 1.73194 3.34596e-06 4.56024e-14 2.22045e-16
threshold=0.15271843434343438 0.13729419191919193 0.10890625000000002 0.10148200757575758 26.500000000000004
decision_type=2 2 2 2 2
left_child=1 2 3 -1 -2
right_child=4 -3 -4 -5 -6
leaf_value=-0.050171779294156393 -0.050171788491023966 0.065283084193579324 -0.050450765426005455 -0.050171728829945028 -0.050171788491023911
leaf_weight=0.1194224967621268 0.88379149488173403 1.2550984025001526 0.24558430258184671 0.071632415754720569 0.5254976456053555
leaf_count=35 259 7 28 21 154
internal_value=0 0.0354436 -0.0503287 -0.0501718 -0.0501718
internal_weight=0 1.69174 0.436639 0.191055 1.40929
internal_count=504 91 84 56 413
shrinkage=0.05


Tree=29
num_leaves=5
num_cat=0
split_feature=10 10 10 10
split_gain=2.13446 1.62603 2.87728e-06 3.5888e-14
threshold=0.15271843434343438 0.13729419191919193 0.10890625000000002 0.10148200757575758
decision_type=2 2 2 2
left_child=1 2 3 -1
right_child=-2 -3 -4 -5
leaf_value=-0.050163370553946152 -0.050163382919330937 0.06431723059378143 -0.050428593959752667 -0.050163324661474301
leaf_weight=0.11361675034277152 1.3407762940041719 1.2113576233386993 0.23370713368058205 0.068149987841024995
leaf_count=35 413 7 28 21
internal_value=0 0.0350421 -0.0503126 -0.0501634
internal_weight=0 1.62683 0.415474 0.181767
internal_count=504 91 84 56
shrinkage=0.05


Tree=30
num_leaves=6
num_cat=0
split_feature=10 10 10 10 9
split_gain=2.0217 1.52796 2.47429e-06 3.2474e-14 2.22045e-16
threshold=0.15271843434343438 0.13729419191919193 0.10890625000000002 0.10148200757575758 8.5000000000000018
decision_type=2 2 2 2 2
left_child=1 2 3 -1 -2
right_child=4 -3 -4 -5 -6
leaf_value=-0.050155378554176483 -0.050155389735140492 0.063425373301598559 -0.050407520120650764 -0.05015533380214432 -0.050155389735140866
leaf_weight=0.10809238487854611 0.10810034000314761 1.16806860268116 0.22239970555528998 0.064836343517526984 1.1674836720339952
leaf_count=35 35 7 28 21 378
internal_value=0 0.0346689 -0.0502972 -0.0501554 -0.0501554
internal_weight=0 1.5634 0.395328 0.172929 1.27558
internal_count=504 91 84 56 413
shrinkage=0.05


Tree=31
num_leaves=6
num_cat=0
split_feature=10 10 10 10 0
split_gain=1.91543 1.43696 2.12783e-06 3.16136e-14 2.22045e-16
threshold=0.15271843434343438 0.13729419191919193 0.10890625000000002 0.10148200757575758 1.5000000000000002
decision_type=2 2 2 2 2
left_child=1 2 3 -1 -2
right_child=4 -3 -4 -5 -6
leaf_value=-0.050147778827647975 -0.050147790140615128 0.062600308909453548 -0.050387490332090369 -0.050147733559126745 -0.050147790140614934
leaf_weight=0.10283584683202218 1.0284341406077144 1.1253722608089447 0.21163511648774147 0.061683346750214696 0.18511814530938853
leaf_count=35 350 7 28 21 63
internal_value=0 0.0343215 -0.0502826 -0.0501478 -0.0501478
internal_weight=0 1.50153 0.376154 0.164519 1.21355
internal_count=504 91 84 56 413
shrinkage=0.05


Tree=32
num_leaves=6
num_cat=0
split_feature=10 10 10 10 9
split_gain=1.81522 1.3524 1.82993e-06 2.57849e-14 2.22045e-16
threshold=0.15271843434343438 0.13729419191919193 0.10890625000000002 0.10148200757575758 83.500000000000014
decision_type=2 2 2 2 2
left_child=1 2 3 -1 -2
right_child=4 -3 -4 -5 -6
leaf_value=-0.050140551469524432 -0.050140557783524657 0.061835703931522747 -0.050368451167659825 -0.05014050954038364 -0.050140557783524366
leaf_weight=0.097834231331944577 0.99798260489478685 1.0833867788314819 0.20138772623613477 0.058683257550001144 0.15654629096388817
leaf_count=35 357 7 28 21 56
internal_value=0 0.0339976 -0.0502688 -0.0501405 -0.0501406
internal_weight=0 1.44129 0.357905 0.156517 1.15453
internal_count=504 91 84 56 413
shrinkage=0.05


Tree=33
num_leaves=6
num_cat=0
split_feature=10 10 10 10 9
split_gain=1.72065 1.27369 1.57389e-06 1.89015e-14 2.22045e-16
threshold=0.15271843434343438 0.13729419191919193 0.10890625000000002 0.10148200757575758 54.000000000000007
decision_type=2 2 2 2 2
left_child=1 2 3 -1 -2
right_child=4 -3 -4 -5 -6
leaf_value=-0.050133674215701224 -0.050133684514176685 0.061126003550765896 -0.050350356503825092 -0.050133637397311172 -0.05013368451417656
leaf_weight=0.093075238168239705 0.80050595919601597 1.0422099977731705 0.19163304194808006 0.055828697746619582 0.29786268249154091
leaf_count=35 301 7 28 21 112
internal_value=0 0.0336954 -0.0502556 -0.0501337 -0.0501337
internal_weight=0 1.38275 0.340537 0.148904 1.09837
internal_count=504 91 84 56 413
shrinkage=0.05


Tree=34
num_leaves=5
num_cat=0
split_feature=10 10 10 10
split_gain=1.63138 1.20032 1.35366e-06 2.20934e-14
threshold=0.15271843434343438 0.13729419191919193 0.10890625000000002 0.10148200757575758
decision_type=2 2 2 2
left_child=1 2 3 -1
right_child=-2 -3 -4 -5
leaf_value=-0.050127140658945246 -0.050127149706102575 0.060466285194102548 -0.050333154884209676 -0.050127099854096357
leaf_weight=0.088547155493870489 1.0449333428405223 1.0019222348928452 0.18234771490097046 0.0531126509886235
leaf_count=35 413 7 28 21
internal_value=0 0.0334131 -0.0502431 -0.0501271
internal_weight=0 1.32593 0.324008 0.14166
internal_count=504 91 84 56
shrinkage=0.05


Tree=35
num_leaves=5
num_cat=0
split_feature=10 10 10 10
split_gain=1.54704 1.13184 1.1643e-06 1.91236e-14
threshold=0.15271843434343438 0.13729419191919193 0.10890625000000002 0.10148200757575758
decision_type=2 2 2 2
left_child=1 2 3 -1
right_child=-2 -3 -4 -5
leaf_value=-0.050120924065641226 -0.050120932575687775 0.059852179916307507 -0.050316802704769487 -0.050120885174614105
leaf_weight=0.084238845156505926 0.9940915498882531 0.96258805692195892 0.17350945575162768 0.050528423627838492
leaf_count=35 413 7 28 21
internal_value=0 0.033149 -0.0502312 -0.0501209
internal_weight=0 1.27086 0.308277 0.134767
internal_count=504 91 84 56
shrinkage=0.05


Tree=36
num_leaves=6
num_cat=0
split_feature=10 10 10 10 7
split_gain=1.46735 1.06785 1.00147e-06 1.09635e-14 1.11022e-16
threshold=0.15271843434343438 0.13729419191919193 0.10890625000000002 0.10148200757575758 1.0000000180025095e-35
decision_type=2 2 2 2 2
left_child=1 2 3 -1 -2
right_child=4 -3 -4 -5 -6
leaf_value=-0.050115009755943823 -0.050115018577147341 0.059279806998134545 -0.050301258531704418 -0.050114979567324261 -0.050115018577146953
leaf_weight=0.080139684025198443 0.8335140561684965 0.92425836622714996 0.16509702149778605 0.048069644719362259 0.11220381525345147
leaf_count=35 364 7 28 21 49
internal_value=0 0.0329018 -0.0502198 -0.050115 -0.050115
internal_weight=0 1.21756 0.293306 0.128209 0.945718
internal_count=504 91 84 56 413
shrinkage=0.05


Tree=37
num_leaves=5
num_cat=0
split_feature=10 10 10 10
split_gain=1.392 1.00797 8.61437e-07 1.16435e-14
threshold=0.15271843434343438 0.13729419191919193 0.10890625000000002 0.10148200757575758
decision_type=2 2 2 2
left_child=1 2 3 -1
right_child=-2 -3 -4 -5
leaf_value=-0.050109388884044884 -0.050109396865278225 0.058745686718208429 -0.050286481498284866 -0.050109356970746671
leaf_weight=0.076239563990384562 0.89969307021237899 0.88697227835655212 0.15709013072773814 0.045730261132121086
leaf_count=35 413 7 28 21
internal_value=0 0.0326702 -0.0502091 -0.0501094
internal_weight=0 1.16603 0.27906 0.12197
internal_count=504 91 84 56
shrinkage=0.05


Tree=38
num_leaves=6
num_cat=0
split_feature=10 10 10 10 0
split_gain=1.32073 0.951904 7.41019e-07 1.21292e-14 1.11022e-16
threshold=0.15271843434343438 0.13729419191919193 0.10890625000000002 0.10148200757575758 1.5000000000000002
decision_type=2 2 2 2 2
left_child=1 2 3 -1 -2
right_child=4 -3 -4 -5 -6
leaf_value=-0.050104044163208655 -0.050104056729454893 0.058246719812716723 -0.050272435279542386 -0.050104010761507778 -0.050104056729454595
leaf_weight=0.07252885610796489 0.72534193750470888 0.85075832158327103 0.14946945384144783 0.043504493543878198 0.13056154875084758
leaf_count=35 350 7 28 21 63
internal_value=0 0.0324529 -0.0501988 -0.050104 -0.0501041
internal_weight=0 1.11626 0.265503 0.116033 0.855903
internal_count=504 91 84 56 413
shrinkage=0.05


Tree=39
num_leaves=7
num_cat=0
split_feature=10 10 10 10 0 9
split_gain=1.25331 0.899341 6.37413e-07 7.82707e-15 1.11022e-16 1.38778e-17
threshold=0.15271843434343438 0.13729419191919193 0.10890625000000002 0.10148200757575758 1.5000000000000002 89.500000000000014
decision_type=2 2 2 2 2 2
left_child=1 2 3 -1 -2 -6
right_child=4 -3 -4 -5 5 -7
leaf_value=-0.050098958004852617 -0.050098970800513731 0.057780092081494032 -0.050259075925858467 -0.050098930466435744 -0.050098970800513211 -0.050098970800512614
leaf_weight=0.068998408969491498 0.69003485841676604 0.81563600152730942 0.14221657393500209 0.041386846220120788 0.082804183010011911 0.041402091505005956
leaf_count=35 350 7 28 21 42 21
internal_value=0 0.0322491 -0.0501891 -0.0500989 -0.050099 -0.050099
internal_weight=0 1.06824 0.252602 0.110385 0.814241 0.124206
internal_count=504 91 84 56 413 63
shrinkage=0.05


Tree=40
num_leaves=6
num_cat=0
split_feature=10 10 10 10 9
split_gain=1.18949 0.850024 5.48338e-07 8.49321e-15 2.22045e-16
threshold=0.15271843434343438 0.13729419191919193 0.10890625000000002 0.10148200757575758 84.500000000000014
decision_type=2 2 2 2 2
left_child=1 2 3 -1 -2
right_child=4 -3 -4 -5 -6
leaf_value=-0.050094124752466621 -0.050094132098390635 0.057343301643885049 -0.050246380202611109 -0.050094095369636008 -0.050094132098389955
leaf_weight=0.065639490843750314 0.70895869983360182 0.78161689639091492 0.13531391834840178 0.039372089901007712 0.065644324058666825
leaf_count=35 378 7 28 21 35
internal_value=0 0.0320576 -0.0501798 -0.0500941 -0.0500941
internal_weight=0 1.02194 0.240325 0.105012 0.774603
internal_count=504 91 84 56 413
shrinkage=0.05


Tree=41
num_leaves=6
num_cat=0
split_feature=10 10 10 10 9
split_gain=1.12907 0.803713 4.7173e-07 6.245e-15 1.11022e-16
threshold=0.15271843434343438 0.13729419191919193 0.10890625000000002 0.10148200757575758 80.000000000000014
decision_type=2 2 2 2 2
left_child=1 2 3 -1 -2
right_child=4 -3 -4 -5 -6
leaf_value=-0.050089524712127992 -0.050089531169073942 0.056934054907282108 -0.050234309193545018 -0.050089498886516863 -0.050089531169073623
leaf_weight=0.062443805974908173 0.61199436406604946 0.74870575219392776 0.12874472932890058 0.037455242243595421 0.12489680899307132
leaf_count=35 343 7 28 21 70
internal_value=0 0.0318776 -0.050171 -0.0500895 -0.0500895
internal_weight=0 0.97735 0.228644 0.099899 0.736891
internal_count=504 91 84 56 413
shrinkage=0.05


Tree=42
num_leaves=7
num_cat=0
split_feature=10 10 10 10 0 9
split_gain=1.07185 0.760191 4.05826e-07 5.25968e-15 1.11022e-16 1.38778e-17
threshold=0.15271843434343438 0.13729419191919193 0.10890625000000002 0.10148200757575758 1.5000000000000002 89.500000000000014
decision_type=2 2 2 2 2 2
left_child=1 2 3 -1 -2 -6
right_child=4 -3 -4 -5 5 -7
leaf_value=-0.050085150131721837 -0.050085159637712928 0.056550301764024528 -0.050222830224056041 -0.050085125833503802 -0.050085159637712311 -0.05008515963771161
leaf_weight=0.059403440798632801 0.59407814405858517 0.71690142154693604 0.12249305751174688 0.035631560487672687 0.07128937728703022 0.03564468864351511
leaf_count=35 350 7 28 21 42 21
internal_value=0 0.0317083 -0.0501627 -0.0500851 -0.0500852 -0.0500852
internal_weight=0 0.934429 0.217528 0.095035 0.701012 0.106934
internal_count=504 91 84 56 413 63
shrinkage=0.05


Tree=43
num_leaves=5
num_cat=0
split_feature=10 10 10 10
split_gain=1.01765 0.719261 3.49124e-07 4.21885e-15
threshold=0.15271843434343438 0.13729419191919193 0.10890625000000002 0.10148200757575758
decision_type=2 2 2 2
left_child=1 2 3 -1
right_child=-2 -3 -4 -5
leaf_value=-0.05008099123833179 -0.050081000416789791 0.056190157442402439 -0.050211915331982597 -0.050080968958952567
leaf_weight=0.056510876165702939 0.66687742795329541 0.68619775027036667 0.11654368694871664 0.033896531676873565
leaf_count=35 413 7 28 21
internal_value=0 0.031549 -0.0501547 -0.050081
internal_weight=0 0.893149 0.206951 0.0904074
internal_count=504 91 84 56
shrinkage=0.05


Tree=44
num_leaves=6
num_cat=0
split_feature=10 10 10 10 8
split_gain=0.966291 0.680742 3.00359e-07 4.17721e-15 1.11022e-16
threshold=0.15271843434343438 0.13729419191919193 0.10890625000000002 0.10148200757575758 1.0000000180025095e-35
decision_type=2 2 2 2 2
left_child=1 2 3 -1 -2
right_child=4 -3 -4 -5 -6
leaf_value=-0.050077035710719822 -0.050077041403947357 0.055851924488375781 -0.050201537958031041 -0.050077012935260283 -0.050077041403946268
leaf_weight=0.053758946596644819 0.59139197750482708 0.65658420324325562 0.11088212532922626 0.032245860435068607 0.043010325636714697
leaf_count=35 385 7 28 21 28
internal_value=0 0.031399 -0.0501471 -0.050077 -0.050077
internal_weight=0 0.853471 0.196887 0.0860048 0.634402
internal_count=504 91 84 56 413
shrinkage=0.05


Tree=45
num_leaves=7
num_cat=0
split_feature=10 10 10 10 0 9
split_gain=0.917617 0.64447 2.5841e-07 3.01148e-15 1.11022e-16 1.38778e-17
threshold=0.15271843434343438 0.13729419191919193 0.10890625000000002 0.10148200757575758 1.5000000000000002 89.500000000000014
decision_type=2 2 2 2 2 2
left_child=1 2 3 -1 -2 -6
right_child=4 -3 -4 -5 5 -7
leaf_value=-0.050073272728109047 -0.050073277687541551 0.055534039453439432 -0.05019167067407973 -0.050073252894748913 -0.050073277687540829 -0.050073277687540024
leaf_weight=0.051140838651917875 0.51144605968147516 0.62804675102233887 0.10549455345608294 0.030675456742756069 0.06137352716177702 0.03068676358088851
leaf_count=35 350 7 28 21 42 21
internal_value=0 0.0312577 -0.05014 -0.0500733 -0.0500733 -0.0500733
internal_weight=0 0.815358 0.187311 0.0818163 0.603506 0.0920603
internal_count=504 91 84 56 413 63
shrinkage=0.05


Tree=46
num_leaves=5
num_cat=0
split_feature=10 10 10 10
split_gain=0.871477 0.610295 2.22329e-07 3.85803e-15
threshold=0.15271843434343438 0.13729419191919193 0.10890625000000002 0.10148200757575758
decision_type=2 2 2 2
left_child=1 2 3 -1
right_child=-2 -3 -4 -5
leaf_value=-0.05006969584097376 -0.050069701596269479 0.055235092640909991 -0.05018228923766941 -0.050069672828826566
leaf_weight=0.048650059965439141 0.57411297911312431 0.60056807845830917 0.10036781057715416 0.029181431047618389
leaf_count=35 413 7 28 21
internal_value=0 0.0311245 -0.0501331 -0.0500697
internal_weight=0 0.778767 0.178199 0.0778315
internal_count=504 91 84 56
shrinkage=0.05


Tree=47
num_leaves=6
num_cat=0
split_feature=10 10 10 10 9
split_gain=0.82773 0.578076 1.91292e-07 2.80331e-15 1.11022e-16
threshold=0.15271843434343438 0.13729419191919193 0.10890625000000002 0.10148200757575758 61.500000000000007
decision_type=2 2 2 2 2
left_child=1 2 3 -1 -2
right_child=4 -3 -4 -5 -6
leaf_value=-0.050066289827842225 -0.050066298151882772 0.054953772679329542 -0.05017336757770139 -0.050066269746841599 -0.050066298151882543
leaf_weight=0.046280435170046985 0.40729781938716769 0.57412847131490707 0.09548936178907752 0.027760074706748128 0.13885152933653444
leaf_count=35 308 7 28 21 105
internal_value=0 0.0309989 -0.0501266 -0.0500663 -0.0500663
internal_weight=0 0.743658 0.16953 0.0740405 0.546149
internal_count=504 91 84 56 413
shrinkage=0.05


Tree=48
num_leaves=5
num_cat=0
split_feature=10 10 10 10
split_gain=0.786244 0.547687 1.64586e-07 2.2482e-15
threshold=0.15271843434343438 0.13729419191919193 0.10890625000000002 0.10148200757575758
decision_type=2 2 2 2
left_child=1 2 3 -1
right_child=-2 -3 -4 -5
leaf_value=-0.050063053105206506 -0.050063057718171149 0.054688885044677761 -0.050164884425360504 -0.050063034675735196
leaf_weight=0.04402608796954155 0.5195460804970935 0.54870612919330597 0.090847265440970659 0.026407862431369722
leaf_count=35 413 7 28 21
internal_value=0 0.0308803 -0.0501204 -0.050063
internal_weight=0 0.709987 0.161281 0.070434
internal_count=504 91 84 56
shrinkage=0.05


Tree=49
num_leaves=6
num_cat=0
split_feature=10 10 10 10 0
split_gain=0.746895 0.51901 1.4161e-07 1.88738e-15 5.55112e-17
threshold=0.15271843434343438 0.13729419191919193 0.10890625000000002 0.10148200757575758 1.5000000000000002
decision_type=2 2 2 2 2
left_child=1 2 3 -1 -2
right_child=4 -3 -4 -5 -6
leaf_value=-0.050059973818390738 -0.050059978154740892 0.054439344981145832 -0.050156816827155316 -0.05005995647243594 -0.050059978154740351
leaf_weight=0.041881419136188924 0.41884505189955235 0.52427737414836884 0.086430140538141131 0.025121442507952452 0.075392109341919422
leaf_count=35 350 7 28 21 63
internal_value=0 0.0307684 -0.0501145 -0.05006 -0.05006
internal_weight=0 0.67771 0.153433 0.0670029 0.494237
internal_count=504 91 84 56 413
shrinkage=0.05


Tree=50
num_leaves=5
num_cat=0
split_feature=10 10 10 10
split_gain=0.709568 0.491937 1.21855e-07 1.51268e-15
threshold=0.15271843434343438 0.13729419191919193 0.10890625000000002 0.10148200757575758
decision_type=2 2 2 2
left_child=1 2 3 -1
right_child=-2 -3 -4 -5
leaf_value=-0.050057042939115393 -0.050057052030858917 0.054204129400059503 -0.050149147168965229 -0.050057027030370418
leaf_weight=0.039841111400164664 0.47015975101385266 0.5008174329996109 0.082227150443941355 0.023897617240436375
leaf_count=35 413 7 28 21
internal_value=0 0.0306628 -0.0501089 -0.050057
internal_weight=0 0.646783 0.145966 0.0637387
internal_count=504 91 84 56
shrinkage=0.05


Tree=51
num_leaves=7
num_cat=0
split_feature=10 10 10 10 9 0
split_gain=0.674152 0.466366 1.04838e-07 2.158e-15 1.11022e-16 1.38778e-17
threshold=0.15271843434343438 0.13729419191919193 0.10890625000000002 0.10148200757575758 80.000000000000014 1.5000000000000002
decision_type=2 2 2 2 2 2
left_child=1 2 3 -1 -2 -6
right_child=4 -3 -4 -5 5 -7
leaf_value=-0.05005426215446112 -0.050054265682545618 0.053982314297892436 -0.050141850444997305 -0.050054242671645099 -0.050054265682544112 -0.050054265682544667
leaf_weight=0.037900092778727412 0.37144826957955956 0.47830028086900711 0.078227978432551026 0.022733350284397602 0.030322307720780373 0.045483461581170559
leaf_count=35 343 7 28 21 28 42
internal_value=0 0.030563 -0.0501036 -0.0500543 -0.0500543 -0.0500543
internal_weight=0 0.617162 0.138861 0.0606334 0.447254 0.0758058
internal_count=504 91 84 56 413 70
shrinkage=0.05


Tree=52
num_leaves=7
num_cat=0
split_feature=10 10 10 10 0 9
split_gain=0.640545 0.442206 9.02126e-08 1.46411e-15 5.55112e-17 5.55112e-17
threshold=0.15271843434343438 0.13729419191919193 0.10890625000000002 0.10148200757575758 1.5000000000000002 80.000000000000014
decision_type=2 2 2 2 2 2
left_child=1 2 3 -1 5 -2
right_child=4 -3 -4 -5 -6 -7
leaf_value=-0.05005161099351544 -0.050051615103545347 0.053773039557104108 -0.050134914543062861 -0.050051594564842643 -0.050051615103544722 -0.050051615103543758
leaf_weight=0.036053543910384178 0.33171702967956662 0.45669921487569809 0.074422790203243494 0.021625747089274228 0.064901157980784774 0.028844959102571011
leaf_count=35 322 7 28 21 63 28
internal_value=0 0.0304687 -0.0500985 -0.0500516 -0.0500516 -0.0500516
internal_weight=0 0.588801 0.132102 0.0576793 0.425463 0.360562
internal_count=504 91 84 56 413 350
shrinkage=0.05


Tree=53
num_leaves=5
num_cat=0
split_feature=10 10 10 10
split_gain=0.608651 0.41937 7.76162e-08 1.01308e-15
threshold=0.15271843434343438 0.13729419191919193 0.10890625000000002 0.10148200757575758
decision_type=2 2 2 2
left_child=1 2 3 -1
right_child=-2 -3 -4 -5
leaf_value=-0.05004909372862755 -0.050049097236881515 0.053575510492641476 -0.050128316225615144 -0.050049079690441395
leaf_weight=0.034296872792765498 0.40473293710965663 0.43598693236708641 0.070802230620756745 0.020572054898366332
leaf_count=35 413 7 28 21
internal_value=0 0.0303795 -0.0500937 -0.0500491
internal_weight=0 0.561658 0.125671 0.0548689
internal_count=504 91 84 56
shrinkage=0.05


Tree=54
num_leaves=6
num_cat=0
split_feature=10 10 10 10 9
split_gain=0.578378 0.397777 6.6793e-08 9.22873e-16 1.11022e-16
threshold=0.15271843434343438 0.13729419191919193 0.10890625000000002 0.10148200757575758 47.000000000000007
decision_type=2 2 2 2 2
left_child=1 2 3 -1 -2
right_child=4 -3 -4 -5 -6
leaf_value=-0.05004669471725668 -0.050046698146341287 0.053388995474604878 -0.050122043638430591 -0.050046681010448471 -0.050046698146341023
leaf_weight=0.032625719264615327 0.27407622837927192 0.41613581776618958 0.067357381340116262 0.019569657859392464 0.11093561624875292
leaf_count=35 294 7 28 21 119
internal_value=0 0.0302952 -0.0500891 -0.0500467 -0.0500467
internal_weight=0 0.535689 0.119553 0.0521954 0.385012
internal_count=504 91 84 56 413
shrinkage=0.05


Tree=55
num_leaves=7
num_cat=0
split_feature=10 10 10 10 9 9
split_gain=0.549641 0.377354 5.74771e-08 5.20417e-16 5.55112e-17 6.93889e-18
threshold=0.15271843434343438 0.13729419191919193 0.10890625000000002 0.10148200757575758 80.000000000000014 89.500000000000014
decision_type=2 2 2 2 2 2
left_child=1 2 3 -1 -2 -6
right_child=4 -3 -4 -5 5 -7
leaf_value=-0.050044414210492466 -0.05004441684463691 0.053212801576186235 -0.05011607894141136 -0.050044403678782191 -0.050044416844635925 -0.050044416844634391
leaf_weight=0.031035922409500927 0.30417445657076314 0.39711815118789673 0.064079757547006011 0.018616059911437333 0.043453493795823306 0.018622925912495703
leaf_count=35 343 7 28 21 49 21
internal_value=0 0.0302154 -0.0500848 -0.0500444 -0.0500444 -0.0500444
internal_weight=0 0.51085 0.113732 0.049652 0.366251 0.0620764
internal_count=504 91 84 56 413 70
shrinkage=0.05


Tree=56
num_leaves=7
num_cat=0
split_feature=10 10 10 10 0 9
split_gain=0.522358 0.35803 4.946e-08 6.03684e-16 5.55112e-17 6.93889e-18
threshold=0.15271843434343438 0.13729419191919193 0.10890625000000002 0.10148200757575758 1.5000000000000002 89.500000000000014
decision_type=2 2 2 2 2 2
left_child=1 2 3 -1 -2 -6
right_child=4 -3 -4 -5 5 -7
leaf_value=-0.050042248250316945 -0.050042248585210426 0.053046307558231948 -0.050110407190025311 -0.050042236556465017 -0.050042248585209184 -0.050042248585207776
leaf_weight=0.029523528297431767 0.29525705322157592 0.37890613451600075 0.06096127862110734 0.017708892119117081 0.03543084638658911 0.017715423193294555
leaf_count=35 350 7 28 21 42 21
internal_value=0 0.0301399 -0.0500807 -0.0500422 -0.0500422 -0.0500422
internal_weight=0 0.4871 0.108194 0.0472324 0.348403 0.0531463
internal_count=504 91 84 56 413 63
shrinkage=0.05


Tree=57
num_leaves=6
num_cat=0
split_feature=10 10 10 10 8
split_gain=0.496453 0.339743 4.25569e-08 5.41234e-16 5.55112e-17
threshold=0.15271843434343438 0.13729419191919193 0.10890625000000002 0.10148200757575758 1.0000000180025095e-35
decision_type=2 2 2 2 2
left_child=1 2 3 -1 -2
right_child=4 -3 -4 -5 -6
leaf_value=-0.050040184951897639 -0.05004018779206492 0.052888923324289565 -0.050105006994282754 -0.05004017358995954 -0.050040187792062853
leaf_weight=0.028084777353797108 0.30895532836439088 0.36147210001945496 0.05799425020813942 0.01684589555952698 0.022469478426501155
leaf_count=35 385 7 28 21 28
internal_value=0 0.0300685 -0.0500767 -0.0500402 -0.0500402
internal_weight=0 0.464397 0.102925 0.0449307 0.331425
internal_count=504 91 84 56 413
shrinkage=0.05


Tree=58
num_leaves=6
num_cat=0
split_feature=10 10 10 10 9
split_gain=0.471854 0.322431 3.66229e-08 7.77156e-16 5.55112e-17
threshold=0.15271843434343438 0.13729419191919193 0.10890625000000002 0.10148200757575758 80.000000000000014
decision_type=2 2 2 2 2
left_child=1 2 3 -1 -2
right_child=4 -3 -4 -5 -6
leaf_value=-0.050038225723689593 -0.050038228243851401 0.05274010341003204 -0.05009987798697052 -0.050038211831225005 -0.050038228243850659
leaf_weight=0.026716087246313691 0.26183695340296254 0.34478864073753357 0.055171344662085176 0.016024923766963184 0.053436112939380109
leaf_count=35 343 7 28 21 70
internal_value=0 0.0300009 -0.050073 -0.0500382 -0.0500382
internal_weight=0 0.442701 0.0979124 0.042741 0.315273
internal_count=504 91 84 56 413
shrinkage=0.05


Tree=59
num_leaves=5
num_cat=0
split_feature=10 10 10 10
split_gain=0.448493 0.306038 3.15142e-08 5.27356e-16
threshold=0.15271843434343438 0.13729419191919193 0.10890625000000002 0.10148200757575758
decision_type=2 2 2 2
left_child=1 2 3 -1
right_child=-2 -3 -4 -5
leaf_value=-0.050036360360461808 -0.050036359281644321 0.05259933150915741 -0.050094997694808602 -0.050036348637071175
leaf_weight=0.02541405166266486 0.29990793101023883 0.32882866263389587 0.052485589636489749 0.015243932954035699
leaf_count=35 413 7 28 21
internal_value=0 0.0299369 -0.0500694 -0.0500364
internal_weight=0 0.421972 0.0931436 0.040658
internal_count=504 91 84 56
shrinkage=0.05


Tree=60
num_leaves=6
num_cat=0
split_feature=10 10 10 10 0
split_gain=0.426306 0.290511 2.71195e-08 3.60822e-16 5.55112e-17
threshold=0.15271843434343438 0.13729419191919193 0.10890625000000002 0.10148200757575758 1.5000000000000002
decision_type=2 2 2 2 2
left_child=1 2 3 -1 -2
right_child=4 -3 -4 -5 -6
leaf_value=-0.050034583644569176 -0.050034586150523745 0.052466143322201814 -0.050090354844182484 -0.050034573619974688 -0.050034586150522802
leaf_weight=0.024175429716706276 0.24177212326321751 0.31356548890471458 0.049930347711779177 0.014500978344585747 0.043518982187379152
leaf_count=35 350 7 28 21 63
internal_value=0 0.0298762 -0.050066 -0.0500346 -0.0500346
internal_weight=0 0.402172 0.0886068 0.0386764 0.285291
internal_count=504 91 84 56 413
shrinkage=0.05


Tree=61
num_leaves=6
num_cat=0
split_feature=10 10 10 10 7
split_gain=0.405232 0.275802 2.33387e-08 1.73472e-16 5.55112e-17
threshold=0.15271843434343438 0.13729419191919193 0.10890625000000002 0.10148200757575758 1.0000000180025095e-35
decision_type=2 2 2 2 2
left_child=1 2 3 -1 -2
right_child=4 -3 -4 -5 -6
leaf_value=-0.050032896232343631 -0.05003289912220267 0.052340093624154753 -0.050085943109673181 -0.050032889105182325 -0.050032899122201324
leaf_weight=0.022997136577032506 0.2391878527123481 0.29897291213274002 0.047499295207671821 0.013794210506603122 0.032198364788200706
leaf_count=35 364 7 28 21 49
internal_value=0 0.0298188 -0.0500628 -0.0500329 -0.0500329
internal_weight=0 0.383264 0.0842906 0.0367913 0.271386
internal_count=504 91 84 56 413
shrinkage=0.05


Tree=62
num_leaves=5
num_cat=0
split_feature=10 10 10 10
split_gain=0.385214 0.261865 2.00833e-08 2.91434e-16
threshold=0.15271843434343438 0.13729419191919193 0.10890625000000002 0.10148200757575758
decision_type=2 2 2 2
left_child=1 2 3 -1
right_child=-2 -3 -4 -5
leaf_value=-0.050031290668554142 -0.050031293018588358 0.05222076081817139 -0.050081742446117516 -0.050031281273701093
leaf_weight=0.021876237355172634 0.25815862586023286 0.28502529859542847 0.045186421368271112 0.013121869240421802
leaf_count=35 413 7 28 21
internal_value=0 0.0297643 -0.0500597 -0.0500313
internal_weight=0 0.36521 0.0801845 0.0349981
internal_count=504 91 84 56
shrinkage=0.05


Tree=63
num_leaves=5
num_cat=0
split_feature=10 10 10 10
split_gain=0.366197 0.248655 1.72823e-08 3.67761e-16
threshold=0.15271843434343438 0.13729419191919193 0.10890625000000002 0.10148200757575758
decision_type=2 2 2 2
left_child=1 2 3 -1
right_child=-2 -3 -4 -5
leaf_value=-0.050029766131307267 -0.050029763935429343 0.05210776717805421 -0.050077750420409975 -0.050029755329612784
leaf_weight=0.020809938956517726 0.24557539605302736 0.2716975100338459 0.042985994135960937 0.012482279911637306
leaf_count=35 413 7 28 21
internal_value=0 0.0297127 -0.0500568 -0.0500298
internal_weight=0 0.347976 0.0762782 0.0332922
internal_count=504 91 84 56
shrinkage=0.05


Tree=64
num_leaves=5
num_cat=0
split_feature=10 10 10 10
split_gain=0.348131 0.236134 1.48728e-08 1.52656e-16
threshold=0.15271843434343438 0.13729419191919193 0.10890625000000002 0.10148200757575758
decision_type=2 2 2 2
left_child=1 2 3 -1
right_child=-2 -3 -4 -5
leaf_value=-0.05002831198976803 -0.050028309901941119 0.052000745158358543 -0.050073952827660174 -0.050028304905232274
leaf_weight=0.01979558722814545 0.23360515618696809 0.2589651383459568 0.040892565040849149 0.011873847339302301
leaf_count=35 413 7 28 21
internal_value=0 0.0296638 -0.050054 -0.0500283
internal_weight=0 0.331527 0.072562 0.0316694
internal_count=504 91 84 56
shrinkage=0.05


Tree=65
num_leaves=5
num_cat=0
split_feature=10 10 10 10
split_gain=0.330965 0.224262 1.27983e-08 7.28584e-17
threshold=0.15271843434343438 0.13729419191919193 0.10890625000000002 0.10148200757575758
decision_type=2 2 2 2
left_child=1 2 3 -1
right_child=-2 -3 -4 -5
leaf_value=-0.050026930389743443 -0.050026931649431595 0.051899369132769727 -0.050070340077241253 -0.050026925352054302
leaf_weight=0.018830651475582272 0.22221807291498408 0.24680429697036743 0.038900946383364499 0.01129505701828748
leaf_count=35 413 7 28 21
internal_value=0 0.0296174 -0.0500514 -0.0500269
internal_weight=0 0.315831 0.0690267 0.0301257
internal_count=504 91 84 56
shrinkage=0.05


Tree=66
num_leaves=5
num_cat=0
split_feature=10 10 10 10
split_gain=0.314655 0.213004 1.10147e-08 6.59195e-17
threshold=0.15271843434343438 0.13729419191919193 0.10890625000000002 0.10148200757575758
decision_type=2 2 2 2
left_child=1 2 3 -1
right_child=-2 -3 -4 -5
leaf_value=-0.050025613805543837 -0.050025616466958446 0.051803308061463438 -0.050066903687140077 -0.050025608853036141
leaf_weight=0.017912728944793344 0.21138577931560576 0.23519185557961464 0.037006199825555086 0.010744465340394527
leaf_count=35 413 7 28 21
internal_value=0 0.0295735 -0.0500489 -0.0500256
internal_weight=0 0.300855 0.0656634 0.0286572
internal_count=504 91 84 56
shrinkage=0.05


Tree=67
num_leaves=5
num_cat=0
split_feature=10 10 10 10
split_gain=0.299158 0.202328 9.47832e-09 1.31839e-16
threshold=0.15271843434343438 0.13729419191919193 0.10890625000000002 0.10148200757575758
decision_type=2 2 2 2
left_child=1 2 3 -1
right_child=-2 -3 -4 -5
leaf_value=-0.050024365992787617 -0.05002436778261702 0.051712263732703635 -0.050063636081014155 -0.050024358833751441
leaf_weight=0.01703952974639833 0.20108127873390913 0.22410533577203751 0.03520362579729408 0.010220700816716999
leaf_count=35 413 7 28 21
internal_value=0 0.0295318 -0.0500465 -0.0500244
internal_weight=0 0.286569 0.0624639 0.0272602
internal_count=504 91 84 56
shrinkage=0.05


Tree=68
num_leaves=6
num_cat=0
split_feature=10 10 10 10 0
split_gain=0.28443 0.1922 8.15683e-09 1.70003e-16 2.77556e-17
threshold=0.15271843434343438 0.13729419191919193 0.10890625000000002 0.10148200757575758 1.5000000000000002
decision_type=2 2 2 2 2
left_child=1 2 3 -1 -2
right_child=4 -3 -4 -5 -6
leaf_value=-0.050023179458235846 -0.050023178376600898 0.051625972646725485 -0.050060530230705926 -0.050023171212372292 -0.050023178376599503
leaf_weight=0.016208877059398219 0.16210072935791686 0.21352292411029339 0.033488750457763672 0.0097224567434750497 0.029178131284425035
leaf_count=35 350 7 28 21 63
internal_value=0 0.0294922 -0.0500442 -0.0500232 -0.0500232
internal_weight=0 0.272943 0.0594201 0.0259313 0.191279
internal_count=504 91 84 56 413
shrinkage=0.05


Tree=69
num_leaves=5
num_cat=0
split_feature=10 10 10 10
split_gain=0.270435 0.182592 7.02186e-09 1.04083e-16
threshold=0.15271843434343438 0.13729419191919193 0.10890625000000002 0.10148200757575758
decision_type=2 2 2 2
left_child=1 2 3 -1
right_child=-2 -3 -4 -5
leaf_value=-0.050022045838481057 -0.050022047515616314 0.051544157895208879 -0.050057577814973941 -0.050022039128931564
leaf_weight=0.015418700815644115 0.1819540886208415 0.20342353731393814 0.031857317546382546 0.0092484905908349901
leaf_count=35 413 7 28 21
internal_value=0 0.0294547 -0.0500421 -0.050022
internal_weight=0 0.259948 0.0565245 0.0246672
internal_count=504 91 84 56
shrinkage=0.05


Tree=70
num_leaves=6
num_cat=0
split_feature=10 10 10 10 8
split_gain=0.257134 0.173475 6.04264e-09 1.31839e-16 2.77556e-17
threshold=0.15271843434343438 0.13729419191919193 0.10890625000000002 0.10148200757575758 1.0000000180025095e-35
decision_type=2 2 2 2 2
left_child=1 2 3 -1 -2
right_child=4 -3 -4 -5 -6
leaf_value=-0.050020970610555764 -0.050020969063079457 0.051466583424383518 -0.050054765407943971 -0.050020962905620463 -0.050020969063075509
leaf_weight=0.014667029143311083 0.1613492269825656 0.19378675706684589 0.030305276974104345 0.0087976209470070899 0.01173448923509568
leaf_count=35 385 7 28 21 28
internal_value=0 0.0294191 -0.05004 -0.050021 -0.050021
internal_weight=0 0.247557 0.0537699 0.0234647 0.173084
internal_count=504 91 84 56 413
shrinkage=0.05


Tree=71
num_leaves=6
num_cat=0
split_feature=10 10 10 10 10
split_gain=0.244492 0.164824 5.19961e-09 9.02056e-17 2.77556e-17
threshold=0.15271843434343438 0.13729419191919193 0.10890625000000002 0.10148200757575758 0.68773926767676785
decision_type=2 2 2 2 2
left_child=1 2 3 -1 -2
right_child=4 -3 -4 -5 -6
leaf_value=-0.050019947781228848 -0.050019948499653299 0.051393013614614215 -0.050052089997459449 -0.05001994125344842 -0.05001994849965307
leaf_weight=0.01395198775571771 0.097671120311133564 0.18459288217127323 0.028828773007262498 0.0083687226288020611 0.066974482499063015
leaf_count=35 245 7 28 21 168
internal_value=0 0.0293853 -0.0500381 -0.0500199 -0.0500199
internal_weight=0 0.235742 0.0511495 0.0223207 0.164646
internal_count=504 91 84 56 413
shrinkage=0.05


Tree=72
num_leaves=6
num_cat=0
split_feature=10 10 10 10 8
split_gain=0.232477 0.156614 4.47526e-09 8.67362e-17 2.77556e-17
threshold=0.15271843434343438 0.13729419191919193 0.10890625000000002 0.10148200757575758 1.0000000180025095e-35
decision_type=2 2 2 2 2
left_child=1 2 3 -1 -2
right_child=4 -3 -4 -5 -6
leaf_value=-0.050018973813048796 -0.050018975483521459 0.051323229577172259 -0.050049547477464242 -0.050018967130160602 -0.050018975483517095
leaf_weight=0.01327179343206808 0.14600049573346041 0.1758229024708271 0.027424135303590447 0.0079607260704506189 0.010618217871524394
leaf_count=35 385 7 28 21 28
internal_value=0 0.0293533 -0.0500362 -0.050019 -0.050019
internal_weight=0 0.22448 0.0486567 0.0212325 0.156619
internal_count=504 91 84 56 413
shrinkage=0.05


Tree=73
num_leaves=6
num_cat=0
split_feature=10 10 10 10 9
split_gain=0.221057 0.14882 3.85131e-09 1.07553e-16 2.77556e-17
threshold=0.15271843434343438 0.13729419191919193 0.10890625000000002 0.10148200757575758 84.500000000000014
decision_type=2 2 2 2 2
left_child=1 2 3 -1 -2
right_child=4 -3 -4 -5 -6
leaf_value=-0.050018050152357697 -0.050018052048796238 0.051257029989560846 -0.050047129625342746 -0.050018042566730314 -0.050018052048792651
leaf_weight=0.012624748109374195 0.13635733252158388 0.16745847277343273 0.026087873207870871 0.0075726136565208426 0.012625678937183693
leaf_count=35 378 7 28 21 35
internal_value=0 0.0293228 -0.0500344 -0.050018 -0.0500181
internal_weight=0 0.213744 0.0462852 0.0201974 0.148983
internal_count=504 91 84 56 413
shrinkage=0.05


Tree=74
num_leaves=4
num_cat=0
split_feature=10 10 10
split_gain=0.210202 0.141422 3.31445e-09
threshold=0.15271843434343438 0.13729419191919193 0.10890625000000002
decision_type=2 2 2
left_child=1 2 -1
right_child=-2 -3 -4
leaf_value=-0.050017164873380593 -0.050017170719957038 0.051194222244495727 -0.050044826743423781
leaf_weight=0.019212654326111078 0.14171945687849075 0.15948192588984966 0.024816664750687778
leaf_count=56 413 7 28
internal_value=0 0.0292939 -0.0500328
internal_weight=0 0.203511 0.0440293
internal_count=504 91 84
shrinkage=0.05


Tree=75
num_leaves=5
num_cat=0
split_feature=10 10 10 10
split_gain=0.199883 0.134399 2.85254e-09 1.04083e-17
threshold=0.15271843434343438 0.13729419191919193 0.10890625000000002 0.10148200757575758
decision_type=2 2 2 2
left_child=1 2 3 -1
right_child=-2 -3 -4 -5
leaf_value=-0.050016329386758811 -0.050016329965338918 0.051134627035397263 -0.05004263986778236 -0.050016327071597512
leaf_weight=0.01142372700269334 0.13480992388213053 0.15187624655663967 0.023607347684446722 0.0068522134388331315
leaf_count=35 413 7 28 21
internal_value=0 0.0292665 -0.0500312 -0.0500163
internal_weight=0 0.19376 0.0418833 0.0182759
internal_count=504 91 84 56
shrinkage=0.05


Tree=76
num_leaves=6
num_cat=0
split_feature=10 10 10 10 8
split_gain=0.190074 0.12773 2.45536e-09 6.93889e-17 2.77556e-17
threshold=0.15271843434343438 0.13729419191919193 0.10890625000000002 0.10148200757575758 1.0000000180025095e-35
decision_type=2 2 2 2 2
left_child=1 2 3 -1 -2
right_child=4 -3 -4 -5 -6
leaf_value=-0.050015534357133989 -0.050015536023750445 0.051078064799735395 -0.050040560452371922 -0.050015527691135313 -0.050015536023745116
leaf_weight=0.010866753989830613 0.11954310772125609 0.14462509751319885 0.022456913779024035 0.0065181281534023574 0.008694044197909534
leaf_count=35 385 7 28 21 28
internal_value=0 0.0292405 -0.0500296 -0.0500155 -0.0500155
internal_weight=0 0.184467 0.0398418 0.0173849 0.128237
internal_count=504 91 84 56 413
shrinkage=0.05


Tree=77
num_leaves=9
num_cat=0
split_feature=10 10 10 7 8 9 9 10
split_gain=0.18075 0.121398 2.11279e-09 1.38778e-17 1.38778e-17 1.38778e-17 1.38778e-17 3.46945e-18
threshold=0.15271843434343438 0.13729419191919193 0.10890625000000002 1.0000000180025095e-35 1.0000000180025095e-35 82.500000000000014 75.000000000000014 0.10148200757575758
decision_type=2 2 2 2 2 2 2 2
left_child=1 2 7 4 5 6 -2 -1
right_child=3 -3 -4 -5 -6 -7 -8 -9
leaf_value=-0.050014774581738912 -0.050014775463211827 0.051024380337237052 -0.050038579585379363 -0.050014775463209038 -0.050014775463206457 -0.050014775463209475 -0.050014775463206457 -0.05001477598754344
leaf_weight=0.01033692920464091 0.07443137769587338 0.13771274127066135 0.021362501487601548 0.014472767885308713 0.0082701530773192644 0.016540306154638529 0.0082701530773192644 0.0062003265484236172
leaf_count=35 252 7 28 49 28 56 28 21
internal_value=0 0.0292158 -0.0500282 -0.0500148 -0.0500148 -0.0500148 -0.0500148 -0.0500148
internal_weight=0 0.175612 0.0378998 0.121985 0.107512 0.0992418 0.0827015 0.0165373
internal_count=504 91 84 413 364 336 280 56
shrinkage=0.05


Tree=78
num_leaves=7
num_cat=0
split_feature=10 10 10 10 9 9
split_gain=0.171885 0.115384 1.81818e-09 2.42861e-17 1.38778e-17 3.46945e-18
threshold=0.15271843434343438 0.13729419191919193 0.10890625000000002 0.10148200757575758 61.500000000000007 84.500000000000014
decision_type=2 2 2 2 2 2
left_child=1 2 3 -1 -2 -6
right_child=4 -3 -4 -5 5 -7
leaf_value=-0.0500140556559171 -0.050014056691870423 0.050973423608410756 -0.050036695393861935 -0.050014051516415428 -0.05001405669186846 -0.05001405669186592
leaf_weight=0.0098329292377457023 0.086536154267378151 0.13112405315041542 0.020321385760325938 0.0058980159228667608 0.019667307788040489 0.0098336538940202445
leaf_count=35 308 7 28 21 70 35
internal_value=0 0.0291923 -0.0500268 -0.0500141 -0.0500141 -0.0500141
internal_weight=0 0.167176 0.0360523 0.0157309 0.116037 0.029501
internal_count=504 91 84 56 413 105
shrinkage=0.05


Tree=79
num_leaves=7
num_cat=0
split_feature=10 10 10 9 10 10
split_gain=0.163457 0.109673 1.56551e-09 1.38778e-17 1.38778e-17 5.20417e-18
threshold=0.15271843434343438 0.13729419191919193 0.10890625000000002 75.000000000000014 0.47861994949494957 0.079591982323232349
decision_type=2 2 2 2 2 2
left_child=1 2 5 4 -2 -1
right_child=3 -3 -4 -5 -6 -7
leaf_value=-0.050013365009043277 -0.050013372437181028 0.050925049130245162 -0.050034906878032984 -0.050013372437183429 -0.050013372437184817 -0.050013366680028731
leaf_weight=0.0056118200882337996 0.01122502307407558 0.12484456039965153 0.019330973969772458 0.024320883327163756 0.074833487160503864 0.0093521182716358453
leaf_count=21 42 7 28 91 280 35
internal_value=0 0.02917 -0.0500255 -0.0500134 -0.0500134 -0.0500134
internal_weight=0 0.159139 0.0342949 0.110379 0.0860585 0.0149639
internal_count=504 91 84 413 322 56
shrinkage=0.05


Tree=80
num_leaves=5
num_cat=0
split_feature=10 10 10 10
split_gain=0.155445 0.104248 1.34653e-09 5.72459e-17
threshold=0.15271843434343438 0.13729419191919193 0.10890625000000002 0.10148200757575758
decision_type=2 2 2 2
left_child=1 2 3 -1
right_child=-2 -3 -4 -5
leaf_value=-0.050012718279804282 -0.050012718486657594 0.050879121228701522 -0.050033198887033573 -0.050012711727555628
leaf_weight=0.008897434250684455 0.1049974673660472 0.11886031180620193 0.018388802243862301 0.0053368850494734952
leaf_count=35 413 7 28 21
internal_value=0 0.0291488 -0.0500243 -0.0500127
internal_weight=0 0.151483 0.0326231 0.0142343
internal_count=504 91 84 56
shrinkage=0.05


Tree=81
num_leaves=6
num_cat=0
split_feature=10 10 10 10 9
split_gain=0.147828 0.0990956 1.15926e-09 1.9082e-17 1.38778e-17
threshold=0.15271843434343438 0.13729419191919193 0.10890625000000002 0.10148200757575758 80.000000000000014
decision_type=2 2 2 2 2
left_child=1 2 3 -1 -2
right_child=4 -3 -4 -5 -6
leaf_value=-0.050012096846351911 -0.050012097759281372 0.050835512411585286 -0.050031581839622946 -0.050012093194032027 -0.05001209775927902
leaf_weight=0.0084636034007417038 0.082949431671295315 0.113157968968153 0.017492521204985678 0.0050766633648891011 0.016928455443121493
leaf_count=35 343 7 28 21 70
internal_value=0 0.0291287 -0.0500231 -0.0500121 -0.0500121
internal_weight=0 0.144191 0.0310328 0.0135403 0.0998779
internal_count=504 91 84 56 413
shrinkage=0.05


Tree=82
num_leaves=8
num_cat=0
split_feature=10 10 10 10 9 9 9
split_gain=0.140585 0.0942009 9.97612e-10 6.59195e-17 2.77556e-17 6.93889e-18 3.46945e-18
threshold=0.15271843434343438 0.13729419191919193 0.10890625000000002 0.10148200757575758 38.000000000000007 83.500000000000014 75.000000000000014
decision_type=2 2 2 2 2 2 2
left_child=1 2 3 -1 -2 6 -6
right_child=4 -3 -4 -5 5 -7 -8
leaf_value=-0.050011508615367808 -0.050011509664385112 0.050794098721023563 -0.050030040088627506 -0.050011501255192652 -0.050011509664381476 -0.050011509664382031 -0.0500115096643797
leaf_weight=0.0080509211256867275 0.062801816122373566 0.10772473458200693 0.01663990126689896 0.0048291270359186464 0.011272120842477307 0.012882423819974065 0.0080515148874837905
leaf_count=35 273 7 28 21 49 56 35
internal_value=0 0.0291096 -0.050022 -0.0500115 -0.0500115 -0.0500115 -0.0500115
internal_weight=0 0.137245 0.0295199 0.01288 0.0950079 0.0322061 0.0193236
internal_count=504 91 84 56 413 140 84
shrinkage=0.05


Tree=83
num_leaves=5
num_cat=0
split_feature=10 10 10 10
split_gain=0.133699 0.0895508 8.58592e-10 6.93889e-18
threshold=0.15271843434343438 0.13729419191919193 0.10890625000000002 0.10148200757575758
decision_type=2 2 2 2
left_child=1 2 3 -1
right_child=-2 -3 -4 -5
leaf_value=-0.05001094534996349 -0.050010949198047994 0.050754768115041385 -0.050028574084330715 -0.050010943259752694
leaf_weight=0.0076583569752983749 0.090375274929101579 0.10254833940416574 0.015828815114218742 0.0045936578535474837
leaf_count=35 413 7 28 21
internal_value=0 0.0290914 -0.0500209 -0.0500109
internal_weight=0 0.130629 0.0280808 0.012252
internal_count=504 91 84 56
shrinkage=0.05


Tree=84
num_leaves=7
num_cat=0
split_feature=10 10 10 10 9 9
split_gain=0.127151 0.085133 7.39099e-10 3.81639e-17 1.38778e-17 3.46945e-18
threshold=0.15271843434343438 0.13729419191919193 0.10890625000000002 0.10148200757575758 70.500000000000014 84.500000000000014
decision_type=2 2 2 2 2 2
left_child=1 2 3 -1 -2 -6
right_child=4 -3 -4 -5 5 -7
leaf_value=-0.05001041225990658 -0.050010412890143567 0.05071741736027946 -0.050027180724442746 -0.050010406242055376 -0.050010412890140514 -0.050010412890137468
leaf_weight=0.0072849301068345085 0.065569206926738843 0.097617029212415218 0.01505724381422624 0.0043696681677829474 0.013113841385347769 0.0072854674363043151
leaf_count=35 315 7 28 21 63 35
internal_value=0 0.0290742 -0.0500199 -0.0500104 -0.0500104 -0.0500104
internal_weight=0 0.124329 0.0267118 0.0116546 0.0859685 0.0203993
internal_count=504 91 84 56 413 98
shrinkage=0.05


Tree=85
num_leaves=5
num_cat=0
split_feature=10 10 10 9
split_gain=0.120926 0.0809355 6.35843e-10 1.38778e-17
threshold=0.15271843434343438 0.13729419191919193 0.10890625000000002 83.500000000000014
decision_type=2 2 2 2
left_child=1 2 -1 -2
right_child=3 -3 -4 -5
leaf_value=-0.050009903061810329 -0.050009903072619578 0.050681936481549034 -0.050025851905297083 -0.050009903072615769
leaf_weight=0.011086306607467122 0.070688242209143937 0.092919551767408848 0.014323264185804874 0.011088351719081402
leaf_count=56 357 7 28 56
internal_value=0 0.0290578 -0.0500189 -0.0500099
internal_weight=0 0.118329 0.0254096 0.0817766
internal_count=504 91 84 413
shrinkage=0.05


Tree=86
num_leaves=5
num_cat=0
split_feature=10 10 10 10
split_gain=0.115006 0.0769471 5.47446e-10 1.04083e-17
threshold=0.15271843434343438 0.13729419191919193 0.10890625000000002 0.10148200757575758
decision_type=2 2 2 2
left_child=1 2 3 -1
right_child=-2 -3 -4 -5
leaf_value=-0.05000942094438441 -0.050009421794622935 0.050648239309210502 -0.050024592922644384 -0.050009417542926052
leaf_weight=0.0065918047330342233 0.077789034141460434 0.08844513725489378 0.013625044928630814 0.0039539154240628704
leaf_count=35 413 7 28 21
internal_value=0 0.0290422 -0.050018 -0.0500094
internal_weight=0 0.112616 0.0241708 0.0105457
internal_count=504 91 84 56
shrinkage=0.05


Tree=87
num_leaves=5
num_cat=0
split_feature=10 10 10 9
split_gain=0.109378 0.0731571 4.71215e-10 1.38778e-17
threshold=0.15271843434343438 0.13729419191919193 0.10890625000000002 89.500000000000014
decision_type=2 2 2 2
left_child=1 2 -1 -2
right_child=3 -3 -4 -5
leaf_value=-0.050008958180735752 -0.050008958558988681 0.050616221669739961 -0.050023391685825661 -0.050008958558976115
leaf_weight=0.010031489640823565 0.070233381353318691 0.084183491766452789 0.012960846826899797 0.0037625025724992147
leaf_count=56 392 7 28 21
internal_value=0 0.0290274 -0.0500171 -0.050009
internal_weight=0 0.107176 0.0229923 0.0739959
internal_count=504 91 84 413
shrinkage=0.05


Tree=88
num_leaves=8
num_cat=0
split_feature=10 10 10 0 9 9 10
split_gain=0.104025 0.0695556 4.05528e-10 1.38778e-17 6.93889e-18 6.93889e-18 5.20417e-18
threshold=0.15271843434343438 0.13729419191919193 0.10890625000000002 1.5000000000000002 30.500000000000004 20.000000000000004 0.10148200757575758
decision_type=2 2 2 2 2 2 2
left_child=1 2 6 4 5 -2 -1
right_child=3 -3 -4 -5 -6 -7 -8
leaf_value=-0.050008521896363928 -0.050008525537161556 0.050585807540313124 -0.050022251459365986 -0.05000852553715969 -0.050008525537161556 -0.050008525537162257 -0.050008524412990932
leaf_weight=0.0059646160516422242 0.01789516769349575 0.080124745145440102 0.012329012766713277 0.01073710061609745 0.01789516769349575 0.023860223591327667 0.0035777130833594128
leaf_count=35 105 7 28 63 105 140 21
internal_value=0 0.0290134 -0.0500163 -0.0500085 -0.0500085 -0.0500085 -0.0500085
internal_weight=0 0.101996 0.0218713 0.0703877 0.0596506 0.0417554 0.00954233
internal_count=504 91 84 413 350 245 56
shrinkage=0.05


Tree=89
num_leaves=5
num_cat=0
split_feature=10 10 10 10
split_gain=0.0989357 0.066133 3.48989e-10 1.73472e-17
threshold=0.15271843434343438 0.13729419191919193 0.10890625000000002 0.10148200757575758
decision_type=2 2 2 2
left_child=1 2 3 -1
right_child=-2 -3 -4 -5
leaf_value=-0.050008108656891315 -0.050008105365805279 0.050556914812221021 -0.050021164856071859 -0.050008103867411252
leaf_weight=0.0056737642444204539 0.066955358255654573 0.076259477064013481 0.011727967736078426 0.0034032537660095841
leaf_count=35 413 7 28 21
internal_value=0 0.029 -0.0500155 -0.0500081
internal_weight=0 0.0970645 0.020805 0.00907702
internal_count=504 91 84 56
shrinkage=0.05


Tree=90
num_leaves=2
num_cat=0
split_feature=10
split_gain=0.0940959
threshold=0.15271843434343438
decision_type=2
left_child=-1
right_child=-2
leaf_value=0.028987338415778587 -0.050007709359595837
leaf_weight=0.092369290025089867 0.06369039771379903
leaf_count=91 413
internal_value=0
internal_weight=0
internal_count=504
shrinkage=0.05


Tree=91
num_leaves=6
num_cat=0
split_feature=10 10 10 9 10
split_gain=0.0884709 0.0639014 3.27705e-10 6.93889e-18 1.73472e-18
threshold=0.15271843434343438 0.13729419191919193 0.10890625000000002 83.500000000000014 0.10148200757575758
decision_type=2 2 2 2 2
left_child=1 2 4 -2 -1
right_child=3 -3 -4 -5 -6
leaf_value=-0.05000793799711048 -0.050007335774622623 0.050514329896735023 -0.050020724708963175 -0.050007335774617495 -0.050007936673127855
leaf_weight=0.0055557795276399702 0.052369758413988166 0.070547251030802727 0.011484062328236178 0.0082148640649393201 0.003332483654958196
leaf_count=35 357 7 28 56 21
internal_value=0 0.0279887 -0.0500151 -0.0500073 -0.0500079
internal_weight=0 0.0909196 0.0203723 0.0605846 0.00888826
internal_count=504 91 84 413 56
shrinkage=0.05


Tree=92
num_leaves=6
num_cat=0
split_feature=10 10 10 10 0
split_gain=0.0841444 0.0607607 2.82006e-10 2.42861e-17 6.93889e-18
threshold=0.15271843434343438 0.13729419191919193 0.10890625000000002 0.10148200757575758 1.5000000000000002
decision_type=2 2 2 2 2
left_child=1 2 3 -1 -2
right_child=4 -3 -4 -5 -6
leaf_value=-0.050007553702934651 -0.050006976628502064 0.050488996937748179 -0.050019714006105824 -0.050007548221115299 -0.050006976628497402
leaf_weight=0.0052848608611384407 0.048839220107765868 0.067139445804059505 0.010924193338723853 0.0031699805549578741 0.0087910596193978563
leaf_count=35 350 7 28 21 63
internal_value=0 0.0279775 -0.0500144 -0.0500076 -0.050007
internal_weight=0 0.0865185 0.019379 0.00845484 0.0576303
internal_count=504 91 84 56 413
shrinkage=0.05


Tree=93
num_leaves=7
num_cat=0
split_feature=10 10 10 0 9 10
split_gain=0.08003 0.0577755 2.42793e-10 6.93889e-18 6.93889e-18 3.46945e-18
threshold=0.15271843434343438 0.13729419191919193 0.10890625000000002 1.5000000000000002 61.500000000000007 0.10148200757575758
decision_type=2 2 2 2 2 2
left_child=1 2 5 4 -2 -1
right_child=3 -3 -4 -5 -6 -7
leaf_value=-0.050007182096188318 -0.050006643607718872 0.050464915585976405 -0.050018752120023817 -0.050006643607714209 -0.050006643607714209 -0.050007180162991861
leaf_weight=0.0050271513318875805 0.038095238414825872 0.063894719816744328 0.010391608870122582 0.0083623694081325084 0.0083623694081325084 0.0030154004925861955
leaf_count=35 287 7 28 63 63 21
internal_value=0 0.0279669 -0.0500137 -0.0500066 -0.0500066 -0.0500072
internal_weight=0 0.0823289 0.0184342 0.05482 0.0464576 0.00804255
internal_count=504 91 84 413 350 56
shrinkage=0.05


Tree=94
num_leaves=5
num_cat=0
split_feature=10 10 10 10
split_gain=0.0761174 0.054938 2.08944e-10 3.03577e-17
threshold=0.15271843434343438 0.13729419191919193 0.10890625000000002 0.10148200757575758
decision_type=2 2 2 2
left_child=1 2 3 -1
right_child=-2 -3 -4 -5
leaf_value=-0.050006835617094958 -0.050006315734637687 0.050442037108215126 -0.050017838755289014 -0.050006829112157508
leaf_weight=0.0047820067557040593 0.052146707399515435 0.060805412940680981 0.0098849802161566913 0.0028683572018053383
leaf_count=35 413 7 28 21
internal_value=0 0.0279568 -0.050013 -0.0500068
internal_weight=0 0.0783408 0.0175353 0.00765036
internal_count=504 91 84 56
shrinkage=0.05


Tree=95
num_leaves=7
num_cat=0
split_feature=10 10 10 0 10 10
split_gain=0.0723964 0.0522407 1.79791e-10 6.93889e-18 6.93889e-18 1.73472e-18
threshold=0.15271843434343438 0.13729419191919193 0.10890625000000002 1.5000000000000002 0.70789078282828288 0.10148200757575758
decision_type=2 2 2 2 2 2
left_child=1 2 5 4 -2 -1
right_child=3 -3 -4 -5 -6 -7
leaf_value=-0.050006499682114819 -0.050006006453891777 0.050420290294300923 -0.05001696776697892 -0.050006006453887225 -0.050006006453890986 -0.05000650160175011
leaf_weight=0.004548815340967848 0.024381519557209685 0.057864210568368435 0.0094030436594039202 0.0075666784832719705 0.0176555831276346 0.0027284833631711081
leaf_count=35 203 7 28 63 147 21
internal_value=0 0.0279471 -0.0500124 -0.050006 -0.050006 -0.0500065
internal_weight=0 0.0745446 0.0166803 0.0496038 0.0420371 0.0072773
internal_count=504 91 84 413 350 56
shrinkage=0.05


Tree=96
num_leaves=6
num_cat=0
split_feature=10 10 10 7 10
split_gain=0.0688578 0.0496768 1.54856e-10 6.93889e-18 2.60209e-18
threshold=0.15271843434343438 0.13729419191919193 0.10890625000000002 1.0000000180025095e-35 0.10148200757575758
decision_type=2 2 2 2 2
left_child=1 2 4 -2 -1
right_child=3 -3 -4 -5 -6
leaf_value=-0.050006179612437064 -0.050005715735913329 0.050399632694759125 -0.050016140584358965 -0.050005715735905613 -0.050006181437535852
leaf_weight=0.0043269937159493557 0.041586641309550032 0.05506413709372282 0.008944595989305526 0.0055982017147471188 0.0025954296870622784
leaf_count=35 364 7 28 49 21
internal_value=0 0.027938 -0.0500118 -0.0500057 -0.0500062
internal_weight=0 0.0709312 0.015867 0.0471848 0.00692242
internal_count=504 91 84 413 56
shrinkage=0.05


Tree=97
num_leaves=5
num_cat=0
split_feature=10 10 10 10
split_gain=0.0654925 0.0472394 1.33232e-10 8.67362e-19
threshold=0.15271843434343438 0.13729419191919193 0.10890625000000002 0.10148200757575758
decision_type=2 2 2 2
left_child=1 2 3 -1
right_child=-2 -3 -4 -5
leaf_value=-0.050005880797648478 -0.050005436333371456 0.050379984447899512 -0.050015352850986475 -0.050005879439776815
leaf_weight=0.0041159878965117977 0.044883855982334353 0.05239853635430336 0.0085084934835322201 0.0024688636913197115
leaf_count=35 413 7 28 21
internal_value=0 0.0279293 -0.0500112 -0.0500059
internal_weight=0 0.0674919 0.0150933 0.00658485
internal_count=504 91 84 56
shrinkage=0.05


Tree=98
num_leaves=6
num_cat=0
split_feature=10 10 10 10 9
split_gain=0.0622919 0.0449223 1.1463e-10 7.80626e-18 6.93889e-18
threshold=0.15271843434343438 0.13729419191919193 0.10890625000000002 0.10148200757575758 77.000000000000014
decision_type=2 2 2 2 2
left_child=1 2 3 -1 -2
right_child=4 -3 -4 -5 -6
leaf_value=-0.050005595595920854 -0.05000516956889664 0.050361317050955229 -0.05001460307132316 -0.050005592043155134 -0.050005169568891797
leaf_weight=0.0039152705867309132 0.034734968561679125 0.049861039035022259 0.008093647425994277 0.002348468937270809 0.0079600969620514661
leaf_count=35 336 7 28 21 77
internal_value=0 0.027921 -0.0500107 -0.0500056 -0.0500052
internal_weight=0 0.0642184 0.0143574 0.00626374 0.0426951
internal_count=504 91 84 56 413
shrinkage=0.05


Tree=99
num_leaves=5
num_cat=0
split_feature=10 10 10 10
split_gain=0.0592481 0.0427195 9.86509e-11 1.73472e-18
threshold=0.15271843434343438 0.13729419191919193 0.10890625000000002 0.10148200757575758
decision_type=2 2 2 2
left_child=1 2 3 -1
right_child=-2 -3 -4 -5
leaf_value=-0.050005322450722416 -0.050004916659112254 0.050343570757396296 -0.050013890904725501 -0.05000532128668389
leaf_weight=0.0037243405167828314 0.040613002602185588 0.047445585485547781 0.007699022680753842 0.0022339445713441819
leaf_count=35 413 7 28 21
internal_value=0 0.0279132 -0.0500102 -0.0500053
internal_weight=0 0.0611029 0.0136573 0.00595829
internal_count=504 91 84 56
shrinkage=0.05


Tree=100
num_leaves=6
num_cat=0
split_feature=10 10 10 0 10
split_gain=0.0563533 0.0406252 8.48435e-11 6.93889e-18 1.73472e-18
threshold=0.15271843434343438 0.13729419191919193 0.10890625000000002 1.5000000000000002 0.10148200757575758
decision_type=2 2 2 2 2
left_child=1 2 4 -2 -1
right_child=3 -3 -4 -5 -6
leaf_value=-0.050005063382188047 -0.05000467868116576 0.050326700196964128 -0.050013210636399796 -0.050004678681158814 -0.050005062001222844
leaf_weight=0.0035427201000857167 0.032739375092205591 0.045146383345127106 0.0073236338212154806 0.0058930875165970056 0.0021250045610941015
leaf_count=35 350 7 28 63 21
internal_value=0 0.0279057 -0.0500097 -0.0500047 -0.0500051
internal_weight=0 0.0581377 0.0129914 0.0386325 0.00566772
internal_count=504 91 84 413 56
shrinkage=0.05


Tree=101
num_leaves=7
num_cat=0
split_feature=10 10 10 0 9 10
split_gain=0.0536002 0.0386342 7.30809e-11 6.93889e-18 3.46945e-18 8.67362e-19
threshold=0.15271843434343438 0.13729419191919193 0.10890625000000002 1.5000000000000002 75.000000000000014 0.10148200757575758
decision_type=2 2 2 2 2 2
left_child=1 2 5 4 -2 -1
right_child=3 -3 -4 -5 -6 -7
leaf_value=-0.050004815905006841 -0.050004448355652022 0.050310666250946469 -0.050012568899928514 -0.050004448355644972 -0.050004448355642432 -0.050004815059364521
leaf_weight=0.0033699558407533914 0.026782804619870149 0.042957910802215338 0.0069665431947214529 0.0056057032925309605 0.0043599914497463024 0.0020213766256347299
leaf_count=35 301 7 28 63 49 21
internal_value=0 0.0278986 -0.0500092 -0.0500044 -0.0500044 -0.0500048
internal_weight=0 0.0553158 0.0123579 0.0367485 0.0311428 0.00539133
internal_count=504 91 84 413 350 56
shrinkage=0.05


Tree=102
num_leaves=6
num_cat=0
split_feature=10 10 10 9 10
split_gain=0.0509818 0.0367411 6.28848e-11 6.93889e-18 5.20417e-18
threshold=0.15271843434343438 0.13729419191919193 0.10890625000000002 84.500000000000014 0.10148200757575758
decision_type=2 2 2 2 2
left_child=1 2 4 -2 -1
right_child=3 -3 -4 -5 -6
leaf_value=-0.050004580589353247 -0.050004233696613033 0.05029542478552064 -0.050011953485600572 -0.050004233696597726 -0.05000457717398861
leaf_weight=0.0032056158888735808 0.031993994198273867 0.040874900296330452 0.0066268602095078677 0.0029624068702105424 0.0019228017772547901
leaf_count=35 378 7 28 35 21
internal_value=0 0.0278919 -0.0500087 -0.0500042 -0.0500046
internal_weight=0 0.0526302 0.0117553 0.0349564 0.00512842
internal_count=504 91 84 413 56
shrinkage=0.05


Tree=103
num_leaves=5
num_cat=0
split_feature=10 10 10 10
split_gain=0.0484915 0.0349413 5.41532e-11 8.67362e-19
threshold=0.15271843434343438 0.13729419191919193 0.10890625000000002 0.10148200757575758
decision_type=2 2 2 2
left_child=1 2 3 -1
right_child=-2 -3 -4 -5
leaf_value=-0.050004355257804514 -0.050004026003917151 0.050280932330419949 -0.050011372045389239 -0.050004356543869172
leaf_weight=0.003049289429327473 0.03325169032177655 0.038892331998795271 0.0063037360378075391 0.0018290335574420169
leaf_count=35 413 7 28 21
internal_value=0 0.0278854 -0.0500083 -0.0500044
internal_weight=0 0.0500744 0.0111821 0.00487832
internal_count=504 91 84 56
shrinkage=0.05


Tree=104
num_leaves=5
num_cat=0
split_feature=10 10 10 10
split_gain=0.0461231 0.03323 4.66059e-11 1.73472e-18
threshold=0.15271843434343438 0.13729419191919193 0.10890625000000002 0.10148200757575758
decision_type=2 2 2 2
left_child=1 2 3 -1
right_child=-2 -3 -4 -5
leaf_value=-0.050004143071815832 -0.050003828640318097 0.050267153578116036 -0.050010817658337592 -0.05000414517343052
leaf_weight=0.0029005858159507625 0.031630109078832902 0.037005414254963398 0.0059963640233036131 0.001739837731292937
leaf_count=35 413 7 28 21
internal_value=0 0.0278793 -0.0500079 -0.0500041
internal_weight=0 0.0476422 0.0106368 0.00464042
internal_count=504 91 84 56
shrinkage=0.05


Tree=105
num_leaves=6
num_cat=0
split_feature=10 10 10 12 10
split_gain=0.0438705 0.0316028 4.01123e-11 6.93889e-18 1.73472e-18
threshold=0.15271843434343438 0.13729419191919193 0.10890625000000002 0.011089330808080807 0.10148200757575758
decision_type=2 2 2 2 2
left_child=1 2 4 -2 -1
right_child=3 -3 -4 -5 -6
leaf_value=-0.050003940139906777 -0.050003640409071952 0.050254061531344429 -0.050010289067700976 -0.050003640409078023 -0.050003942226683466
leaf_weight=0.0027591335019678809 0.0061195119924377641 0.035209580324590206 0.0057039766252273694 0.023968088637047913 0.0016549913707422093
leaf_count=35 84 7 28 329 21
internal_value=0 0.0278735 -0.0500075 -0.0500036 -0.0500039
internal_weight=0 0.0453277 0.0101181 0.0300876 0.00441412
internal_count=504 91 84 413 56
shrinkage=0.05


Tree=106
num_leaves=6
num_cat=0
split_feature=10 10 10 8 10
split_gain=0.041728 0.0300556 3.45368e-11 3.46945e-18 3.46945e-18
threshold=0.15271843434343438 0.13729419191919193 0.10890625000000002 1.0000000180025095e-35 0.10148200757575758
decision_type=2 2 2 2 2
left_child=1 2 4 -2 -1
right_child=3 -3 -4 -5 -6
leaf_value=-0.050003749174827729 -0.050003464813192726 0.05024160314616663 -0.050009787692576094 -0.050003464813168856 -0.050003746399760532
leaf_weight=0.0026245788685628213 0.026679949623940047 0.033500481862574816 0.0054258433810900897 0.0019403599726501844 0.0015742823961772956
leaf_count=35 385 7 28 28 21
internal_value=0 0.027868 -0.0500072 -0.0500035 -0.0500037
internal_weight=0 0.0431252 0.0096247 0.0286203 0.00419886
internal_count=504 91 84 413 56
shrinkage=0.05


Tree=107
num_leaves=6
num_cat=0
split_feature=10 10 10 9 10
split_gain=0.0396903 0.0285844 2.97275e-11 6.93889e-18 8.67362e-19
threshold=0.15271843434343438 0.13729419191919193 0.10890625000000002 30.500000000000004 0.10148200757575758
decision_type=2 2 2 2 2
left_child=1 2 4 -2 -1
right_child=3 -3 -4 -5 -6
leaf_value=-0.050003564995021316 -0.050003294757987517 0.050229771694800911 -0.050009310511377081 -0.050003294757985206 -0.050003566047763286
leaf_weight=0.0024965855627669953 0.017534468759549782 0.031873962841928005 0.0051612698880489916 0.0096901011565933004 0.0014975091180531308
leaf_count=35 266 7 28 147 21
internal_value=0 0.0278628 -0.0500068 -0.0500033 -0.0500036
internal_weight=0 0.0410293 0.00915536 0.0272246 0.00399409
internal_count=504 91 84 413 56
shrinkage=0.05


Tree=108
num_leaves=7
num_cat=0
split_feature=10 10 10 9 9 10
split_gain=0.0377523 0.0271855 2.55394e-11 3.46945e-18 8.67362e-19 4.33681e-19
threshold=0.15271843434343438 0.13729419191919193 0.10890625000000002 77.000000000000014 84.500000000000014 0.10148200757575758
decision_type=2 2 2 2 2 2
left_child=1 2 5 -2 -5 -1
right_child=3 -3 -4 4 -6 -7
leaf_value=-0.050003393897457463 -0.050003138772376755 0.050218513691996751 -0.050008854132681926 -0.050003138772360158 -0.050003138772356341 -0.050003394899870594
leaf_weight=0.00237483368255198 0.021068658563308418 0.030326075851917267 0.0049095953581854701 0.0026335823204135514 0.0021946519336779602 0.0014244794729165733
leaf_count=35 336 7 28 42 35 21
internal_value=0 0.0278578 -0.0500065 -0.0500031 -0.0500031 -0.0500034
internal_weight=0 0.039035 0.00870891 0.0258969 0.00482823 0.00379931
internal_count=504 91 84 413 77 56
shrinkage=0.05


Tree=109
num_leaves=6
num_cat=0
split_feature=10 10 10 10 9
split_gain=0.0359089 0.0258553 2.1996e-11 4.77049e-18 3.46945e-18
threshold=0.15271843434343438 0.13729419191919193 0.10890625000000002 0.10148200757575758 8.5000000000000018
decision_type=2 2 2 2 2
left_child=1 2 3 -1 -2
right_child=4 -3 -4 -5 -6
leaf_value=-0.050003228578634665 -0.050002982530034969 0.050207814690977431 -0.050008422472336417 -0.050003225021438807 -0.050002982530056687
leaf_weight=0.0022590188091271557 0.0020876237977063275 0.028853049501776695 0.0046701909886905923 0.0013550111762015149 0.022546337015228346
leaf_count=35 35 7 28 21 378
internal_value=0 0.0278531 -0.0500062 -0.0500032 -0.050003
internal_weight=0 0.0371373 0.00828422 0.00361403 0.024634
internal_count=504 91 84 56 413
shrinkage=0.05


Tree=110
num_leaves=5
num_cat=0
split_feature=10 10 10 10
split_gain=0.0341557 0.0245904 1.89384e-11 4.33681e-18
threshold=0.15271843434343438 0.13729419191919193 0.10890625000000002 0.079591982323232349
decision_type=2 2 2 2
left_child=1 2 3 -1
right_child=-2 -3 -4 -5
leaf_value=-0.050003073488534694 -0.050002837283610116 0.050197634630278092 -0.050008013864455796 -0.050003069838373562
leaf_weight=0.0012892471931991167 0.023432614176272182 0.02745129493996501 0.0044424585357774049 0.0021485351098817773
leaf_count=21 413 7 28 35
internal_value=0 0.0278485 -0.0500059 -0.0500031
internal_weight=0 0.0353315 0.00788024 0.00343778
internal_count=504 91 84 56
shrinkage=0.05


Tree=111
num_leaves=6
num_cat=0
split_feature=10 10 10 10 10
split_gain=0.0324882 0.0233875 1.62929e-11 3.46945e-18 8.67362e-19
threshold=0.15271843434343438 0.13729419191919193 0.10890625000000002 0.31904545454545458 0.10148200757575758
decision_type=2 2 2 2 2
left_child=1 2 4 -2 -1
right_child=3 -3 -4 -5 -6
leaf_value=-0.050002920891542547 -0.05000269963805181 0.050187959133239396 -0.050007620779765928 -0.050002699638063856 -0.050002919261533711
leaf_weight=0.0020440570224309331 0.0034001469830400302 0.026117386296391487 0.0042258294997736812 0.018889705461333506 0.0012260721960046794
leaf_count=35 63 7 28 350 21
internal_value=0 0.0278443 -0.0500056 -0.0500027 -0.0500029
internal_weight=0 0.0336133 0.00749596 0.0222899 0.00327013
internal_count=504 91 84 413 56
shrinkage=0.05


Tree=112
num_leaves=6
num_cat=0
split_feature=10 10 10 9 10
split_gain=0.0309022 0.0222437 1.40244e-11 3.46945e-18 8.67362e-19
threshold=0.15271843434343438 0.13729419191919193 0.10890625000000002 77.000000000000014 0.10148200757575758
decision_type=2 2 2 2 2
left_child=1 2 4 -2 -1
right_child=3 -3 -4 -5 -6
leaf_value=-0.050002779227394656 -0.050002565223461019 0.050178755692986049 -0.050007249960665204 -0.050002565223451284 -0.050002777427827029
leaf_weight=0.0019443726268946184 0.017249750148039311 0.024848067201673985 0.0040197625785367563 0.0039530677422590079 0.0011662791912385728
leaf_count=35 336 7 28 77 21
internal_value=0 0.0278402 -0.0500053 -0.0500026 -0.0500028
internal_weight=0 0.0319785 0.00713041 0.0212028 0.00311065
internal_count=504 91 84 413 56
shrinkage=0.05


Tree=113
num_leaves=5
num_cat=0
split_feature=10 10 10 10
split_gain=0.0293936 0.0211559 1.20797e-11 1.30104e-18
threshold=0.15271843434343438 0.13729419191919193 0.10890625000000002 0.10148200757575758
decision_type=2 2 2 2
left_child=1 2 3 -1
right_child=-2 -3 -4 -5
leaf_value=-0.050002642898006856 -0.05000243972900658 0.050170008546788991 -0.050006897021672339 -0.050002640923891284
leaf_weight=0.0018495493059162973 0.020168794020719361 0.023640229599550366 0.0038237426488194615 0.0011094019755546469
leaf_count=35 413 7 28 21
internal_value=0 0.0278363 -0.050005 -0.0500026
internal_weight=0 0.0304229 0.00678269 0.00295895
internal_count=504 91 84 56
shrinkage=0.05


Tree=114
num_leaves=5
num_cat=0
split_feature=10 10 10 10
split_gain=0.0279588 0.0201215 1.04014e-11 4.33681e-19
threshold=0.15271843434343438 0.13729419191919193 0.10890625000000002 0.10148200757575758
decision_type=2 2 2 2
left_child=1 2 3 -1
right_child=-2 -3 -4 -5
leaf_value=-0.050002512062976318 -0.05000232203464168 0.050161692166895283 -0.050006560259293634 -0.050002512080926466
leaf_weight=0.0017593502016097764 0.019185195058526006 0.022490917006507516 0.0036372804606799036 0.0010552984495006967
leaf_count=35 413 7 28 21
internal_value=0 0.0278326 -0.0500048 -0.0500025
internal_weight=0 0.0289428 0.00645193 0.00281465
internal_count=504 91 84 56
shrinkage=0.05


Tree=115
num_leaves=7
num_cat=0
split_feature=10 10 10 9 10 9
split_gain=0.0265941 0.0191378 8.9506e-12 3.46945e-18 1.30104e-18 8.67362e-19
threshold=0.15271843434343438 0.13729419191919193 0.10890625000000002 13.500000000000002 0.10148200757575758 8.5000000000000018
decision_type=2 2 2 2 2 2
left_child=1 2 4 5 -1 -2
right_child=3 -3 -4 -5 -6 -7
leaf_value=-0.050002392060374726 -0.050002210558782151 0.050153781656171903 -0.05000624150458384 -0.050002210558810857 -0.050002389722438714 -0.050002210558796494
leaf_weight=0.0016735496610635883 0.0015465730029973193 0.02139731147326529 0.0034599096834426746 0.013919157026975881 0.0010038333894044627 0.0027838314053951763
leaf_count=35 35 7 28 315 21 63
internal_value=0 0.0278291 -0.0500046 -0.0500022 -0.0500024 -0.0500022
internal_weight=0 0.0275346 0.00613729 0.0182496 0.00267738 0.0043304
internal_count=504 91 84 413 56 98
shrinkage=0.05


Tree=116
num_leaves=4
num_cat=0
split_feature=10 10 10
split_gain=0.025296 0.0182023 7.71205e-12
threshold=0.15271843434343438 0.13729419191919193 0.10890625000000002
decision_type=2 2 2
left_child=1 2 -1
right_child=-2 -3 -4
leaf_value=-0.050002271798221976 -0.050002103186844504 0.050146258526273961 -0.050005936277175159
leaf_weight=0.0025468113271926987 0.017359556786686881 0.020356728695333004 0.0032911875168792903
leaf_count=56 413 7 28
internal_value=0 0.0278258 -0.0500043
internal_weight=0 0.0261947 0.005838
internal_count=504 91 84
shrinkage=0.05


Tree=117
num_leaves=5
num_cat=0
split_feature=10 10 10 10
split_gain=0.0240614 0.0173126 6.63336e-12 2.1684e-18
threshold=0.15271843434343438 0.13729419191919193 0.10890625000000002 0.096345075757575768
decision_type=2 2 2 2
left_child=1 2 3 -1
right_child=-2 -3 -4 -5
leaf_value=-0.050002165221998386 -0.050001997192644726 0.050139101265617804 -0.050005648427690001 -0.050002162467160327
leaf_weight=0.0012114151213609139 0.016512954429344973 0.019366613123565912 0.0031306919918279164 0.0012111919386370573
leaf_count=28 413 7 28 28
internal_value=0 0.0278226 -0.0500041 -0.0500022
internal_weight=0 0.0249199 0.0055533 0.00242261
internal_count=504 91 84 56
shrinkage=0.05


Tree=118
num_leaves=5
num_cat=0
split_feature=10 10 10 10
split_gain=0.022887 0.0164665 5.70242e-12 4.33681e-19
threshold=0.15271843434343438 0.13729419191919193 0.10890625000000002 0.096345075757575768
decision_type=2 2 2 2
left_child=1 2 3 -1
right_child=-2 -3 -4 -5
leaf_value=-0.050002058552255813 -0.050001903498004409 0.050132303635713395 -0.050005371903297291 -0.050002060036813137
leaf_weight=0.0011523360772116567 0.015707637361629168 0.018424528185278177 0.0029780223267152905 0.0011521237429406028
leaf_count=28 413 7 28 28
internal_value=0 0.0278196 -0.0500039 -0.0500021
internal_weight=0 0.023707 0.00528248 0.00230446
internal_count=504 91 84 56
shrinkage=0.05


Tree=119
num_leaves=4
num_cat=0
split_feature=10 10 10
split_gain=0.02177 0.0156618 4.91537e-12
threshold=0.15271843434343438 0.13729419191919193 0.10890625000000002
decision_type=2 2 2
left_child=1 2 -1
right_child=-2 -3 -4
leaf_value=-0.050001956343020473 -0.05000181003009746 0.050125833415077717 -0.05000510971676686
leaf_weight=0.0021920743565715375 0.014941593755793292 0.017528157914057374 0.0028327969412202947
leaf_count=56 413 7 28
internal_value=0 0.0278167 -0.0500037
internal_weight=0 0.022553 0.00502487
internal_count=504 91 84
shrinkage=0.05


Tree=120
num_leaves=5
num_cat=0
split_feature=10 10 10 16
split_gain=0.0207076 0.0148965 4.22686e-12 3.46945e-18
threshold=0.15271843434343438 0.13729419191919193 0.10890625000000002 0.070040485829959531
decision_type=2 2 2 2
left_child=1 2 -1 -2
right_child=3 -3 -4 -5
leaf_value=-0.05000186123751215 -0.050001723117432423 0.050119680509236833 -0.050004859453656375 -0.050001723117430709
leaf_weight=0.0020851695262535932 0.0079495925783703569 0.016675295541062951 0.0026946528960252181 0.0062633153647766457
leaf_count=56 231 7 28 182
internal_value=0 0.027814 -0.0500036 -0.0500017
internal_weight=0 0.0214551 0.00477982 0.0142129
internal_count=504 91 84 413
shrinkage=0.05


Tree=121
num_leaves=5
num_cat=0
split_feature=10 10 10 9
split_gain=0.019697 0.0141687 3.63805e-12 1.73472e-18
threshold=0.15271843434343438 0.13729419191919193 0.10890625000000002 83.500000000000014
decision_type=2 2 2 2
left_child=1 2 -1 -2
right_child=3 -3 -4 -5
leaf_value=-0.050001771780313231 -0.050001633648441693 0.050113828261357102 -0.050004623751398719 -0.05000163364841867
leaf_weight=0.0019834781160170669 0.011686571262544021 0.015863836975768209 0.0025632449251133949 0.001833187649026514
leaf_count=56 357 7 28 56
internal_value=0 0.0278114 -0.0500034 -0.0500016
internal_weight=0 0.0204106 0.00454672 0.0135198
internal_count=504 91 84 413
shrinkage=0.05


Tree=122
num_leaves=5
num_cat=0
split_feature=10 10 10 7
split_gain=0.0187358 0.0134765 3.12206e-12 1.73472e-18
threshold=0.15271843434343438 0.13729419191919193 0.10890625000000002 1.0000000180025095e-35
decision_type=2 2 2 2
left_child=1 2 -1 -2
right_child=3 -3 -4 -5
leaf_value=-0.050001687154363317 -0.0500015538423264 0.050108268901697207 -0.050004396021689518 -0.050001553842297999
leaf_weight=0.0018867457984015337 0.01133460110577289 0.015091780805960298 0.0024382447736570612 0.0015258116873155822
leaf_count=56 364 7 28 49
internal_value=0 0.0278089 -0.0500032 -0.0500016
internal_weight=0 0.0194168 0.00432499 0.0128604
internal_count=504 91 84 413
shrinkage=0.05


Tree=123
num_leaves=6
num_cat=0
split_feature=10 10 10 13 13
split_gain=0.0178215 0.0128182 2.69675e-12 1.73472e-18 4.33681e-19
threshold=0.15271843434343438 0.13729419191919193 0.10890625000000002 0.53166258169934655 0.5843218954248367
decision_type=2 2 2 2 2
left_child=1 2 -1 -2 -5
right_child=3 -3 -4 4 -6
leaf_value=-0.050001601964011294 -0.050001483052572737 0.050102972874913811 -0.050004183297815967 -0.050001483052543386 -0.05000148305252964
leaf_weight=0.0017947310807357999 0.0097451079436723376 0.01435722503811121 0.0023193398737930693 0.0014513990554405618 0.0010367136110289721
leaf_count=56 329 7 28 49 35
internal_value=0 0.0278066 -0.0500031 -0.0500015 -0.0500015
internal_weight=0 0.0184713 0.00411407 0.0122332 0.00248811
internal_count=504 91 84 413 84
shrinkage=0.05


Tree=124
num_leaves=4
num_cat=0
split_feature=10 10 10
split_gain=0.0169519 0.012192 2.31674e-12
threshold=0.15271843434343438 0.13729419191919193 0.10890625000000002
decision_type=2 2 2
left_child=1 2 -1
right_child=-2 -3 -4
leaf_value=-0.050001524487173224 -0.050001407375573383 0.050097940881781093 -0.050003977608832809
leaf_weight=0.001707203598925843 0.011636616021860391 0.013658351614139974 0.0022062331408960745
leaf_count=56 413 7 28
internal_value=0 0.0278043 -0.0500029
internal_weight=0 0.0175718 0.00391344
internal_count=504 91 84
shrinkage=0.05


Tree=125
num_leaves=5
num_cat=0
split_feature=10 10 10 0
split_gain=0.0161247 0.0115965 1.99319e-12 1.73472e-18
threshold=0.15271843434343438 0.13729419191919193 0.10890625000000002 1.5000000000000002
decision_type=2 2 2 2
left_child=1 2 -1 -2
right_child=3 -3 -4 -5
leaf_value=-0.050001450536645065 -0.050001340401053529 0.050093156463468604 -0.050003783519557046 -0.050001340401029215
leaf_weight=0.0016239446522376957 0.0093805985670769587 0.012993435375392437 0.0020986418530810624 0.0016885077420738534
leaf_count=56 350 7 28 63
internal_value=0 0.0278022 -0.0500028 -0.0500013
internal_weight=0 0.016716 0.00372259 0.0110691
internal_count=504 91 84 413
shrinkage=0.05


Tree=126
num_leaves=5
num_cat=0
split_feature=10 10 10 0
split_gain=0.0153379 0.0110302 1.71886e-12 1.73472e-18
threshold=0.15271843434343438 0.13729419191919193 0.10890625000000002 1.5000000000000002
decision_type=2 2 2 2
left_child=1 2 -1 -2
right_child=3 -3 -4 -5
leaf_value=-0.050001379833083517 -0.050001273561870146 0.050088605299186184 -0.050003601172525919 -0.050001273561844577
leaf_weight=0.0015447460700670481 0.0089231128185929265 0.012360833468846977 0.0019962969890912063 0.0016061603073467276
leaf_count=56 350 7 28 63
internal_value=0 0.0278002 -0.0500026 -0.0500013
internal_weight=0 0.0159019 0.00354104 0.0105293
internal_count=504 91 84 413
shrinkage=0.05


Tree=127
num_leaves=6
num_cat=0
split_feature=10 10 10 9 9
split_gain=0.0145895 0.0104915 1.479e-12 3.46945e-18 8.67362e-19
threshold=0.15271843434343438 0.13729419191919193 0.10890625000000002 22.000000000000004 30.500000000000004
decision_type=2 2 2 2 2
left_child=1 2 -1 -2 -5
right_child=3 -3 -4 4 -6
leaf_value=-0.050001312364671924 -0.050001211346952824 0.050084276766254432 -0.050003425052016631 -0.050001211346952824 -0.050001211346954302
leaf_weight=0.0014694098426844002 0.0032254163270408753 0.011758978827856481 0.0018989429736393504 0.0032254163270408753 0.0035649338351504412
leaf_count=56 133 7 28 133 147
internal_value=0 0.0277983 -0.0500025 -0.0500012 -0.0500012
internal_weight=0 0.0151273 0.00336835 0.0100158 0.00679035
internal_count=504 91 84 413 280
shrinkage=0.05


Tree=128
num_leaves=4
num_cat=0
split_feature=10 10 10
split_gain=0.0138777 0.00997919 1.26998e-12
threshold=0.15271843434343438 0.13729419191919193 0.10890625000000002
decision_type=2 2 2
left_child=1 2 -1
right_child=-2 -3 -4
leaf_value=-0.050001249382025659 -0.050001155175282558 0.050080158453446946 -0.050003256653632956
leaf_weight=0.001397747599185096 0.0095273025253845844 0.011186383431777358 0.0018063363022520207
leaf_count=56 413 7 28
internal_value=0 0.0277965 -0.0500024
internal_weight=0 0.0143905 0.00320408
internal_count=504 91 84
shrinkage=0.05


Tree=129
num_leaves=6
num_cat=0
split_feature=10 10 10 0 10
split_gain=0.0132006 0.00949191 1.09555e-12 1.73472e-18 8.67362e-19
threshold=0.15271843434343438 0.13729419191919193 0.10890625000000002 1.5000000000000002 0.52399873737373748
decision_type=2 2 2 2 2
left_child=1 2 -1 4 -2
right_child=3 -3 -4 -5 -6
leaf_value=-0.050001187504654925 -0.050001098349052676 0.050076244201369739 -0.050003099038713111 -0.050001098349041553 -0.05000109834906892
leaf_weight=0.0013295802637003371 0.0019968573906226084 0.01064162771217525 0.001718245566735277 0.0013824397319694981 0.00568336334254127
leaf_count=56 91 7 28 63 259
internal_value=0 0.0277947 -0.0500023 -0.0500011 -0.0500011
internal_weight=0 0.0136895 0.00304783 0.00906266 0.00768022
internal_count=504 91 84 413 350
shrinkage=0.05


Tree=130
num_leaves=5
num_cat=0
split_feature=10 10 10 9
split_gain=0.0125565 0.00902846 9.4292e-13 1.73472e-18
threshold=0.15271843434343438 0.13729419191919193 0.10890625000000002 80.000000000000014
decision_type=2 2 2 2
left_child=1 2 -1 -2
right_child=3 -3 -4 -5
leaf_value=-0.05000112958970783 -0.050001045731122476 0.050072520361481167 -0.050002947864676128 -0.050001045731095234
leaf_weight=0.0012647372914216257 0.0071595462486584438 0.010123362997546792 0.0016344505638699047 0.0014611318874813151
leaf_count=56 343 7 28 70
internal_value=0 0.0277931 -0.0500022 -0.050001
internal_weight=0 0.0130226 0.00289919 0.00862068
internal_count=504 91 84 413
shrinkage=0.05


Tree=131
num_leaves=4
num_cat=0
split_feature=10 10 10
split_gain=0.0119439 0.00858765 8.12595e-13
threshold=0.15271843434343438 0.13729419191919193 0.10890625000000002
decision_type=2 2 2
left_child=1 2 -1
right_child=-2 -3 -4
leaf_value=-0.050001072669357105 -0.050000993991794446 0.050068977218008175 -0.050002803346739656
leaf_weight=0.0012030566304019894 0.008200251211746945 0.0096303049940615892 0.0015547418370260857
leaf_count=56 413 7 28
internal_value=0 0.0277915 -0.050002
internal_weight=0 0.0123881 0.0027578
internal_count=504 91 84
shrinkage=0.05


Tree=132
num_leaves=4
num_cat=0
split_feature=10 10 10
split_gain=0.0113612 0.00816839 6.98577e-13
threshold=0.15271843434343438 0.13729419191919193 0.10890625000000002
decision_type=2 2 2
left_child=1 2 -1
right_child=-2 -3 -4
leaf_value=-0.050001021963925786 -0.050000948644794312 0.050065606344316171 -0.050002667257229162
leaf_weight=0.0011443840212450604 0.0078003272010391802 0.0091612305259332061 0.0014789201159146614
leaf_count=56 413 7 28
internal_value=0 0.02779 -0.0500019
